3731 32
recentija_atr_funny_0 -0.019562852 -0.40658975 0.27248392 0.23647332 -0.46439886 -0.73158044 1.0571525 0.5348427 0.3800406 0.14194742 0.03612799 -0.2032113 0.5290968 -0.16886885 -0.42530045 -0.18997893 -0.3543654 1.2639725 0.32044905 0.04230316 0.040297654 0.276439 0.69820666 -0.123586565 0.77408797 0.12796581 0.040355075 0.44484615 -0.3941548 0.36547327 -0.4790069 0.21909998
recentija_atr_useful_0 -0.14771144 -0.49100193 0.58443767 0.02831621 -0.0014263592 -0.8048674 1.0489148 0.10635289 0.15101537 -0.59657305 -0.07494537 0.081221156 0.33897233 -0.090071484 -0.65608215 -0.25538805 -0.40217108 1.6240408 0.064335026 0.0040071183 -0.040662874 0.07474696 0.91219 -0.17278922 1.0753783 0.2819409 -0.34015942 0.1895603 -0.5499929 -0.17824285 -0.49572203 -0.13327302
recentija_atr_stars_5 0.12939419 -0.6572951 0.29042724 0.3799621 -0.57541704 -0.65252197 0.43129513 0.07095108 0.17466307 0.044720724 0.8236863 0.14806092 0.8721581 0.32094035 -0.7151701 -0.3861766 -0.30023387 0.893751 -0.1195783 0.09779505 -0.66991276 0.7965755 1.194086 0.08998084 0.24957371 -0.046741452 -0.37654325 0.90094393 -0.8973107 1.0080385 -0.12449768 0.019748256
recentija_atr_stars_4 -0.2237712 -0.93484527 -0.20161457 0.47215086 -0.5728519 -0.49038172 0.35806006 -0.017756118 0.07650599 -0.056492444 0.2802651 -0.39406988 0.42400947 -0.51835686 -0.25539133 0.3026458 -1.0498254 1.6090082 -0.24939112 0.28410345 0.14761695 0.707822 0.43753514 -0.025761357 0.91060764 0.019184772 0.7069265 0.21857172 0.49718422 -0.48047188 -1.2262232 0.5646048
recentija_atr_useful_1 -0.6115694 -0.15147644 0.57940793 0.10718795 -0.38626483 -0.31141475 0.55963975 1.0671314 0.09093496 0.62409085 0.258815 -0.9941226 0.9030654 -0.54084545 -0.32485235 -0.62617594 -0.2277115 0.6315802 0.93202907 0.31698453 -0.4606922 1.2035761 0.29227367 0.06958746 0.4208046 0.08153125 0.08589196 0.41836396 0.4878998 1.1502059 -0.84829813 0.6630913
u_atribut_photos_0.0 -0.8734021 -0.7586136 0.30157056 0.1693712 -0.2835688 -0.22620867 1.3094606 0.4111241 -0.183069 0.57637984 0.8154049 -0.7095551 -0.3495078 0.5657197 0.03822914 -0.3601561 -0.19892634 0.51935035 -0.55667657 -0.030896315 -0.5974461 0.931152 0.61298174 0.62585586 0.2189197 -0.025531279 -0.33895725 0.16178189 0.06381007 -0.76888466 -0.4254957 -0.0357253
u_atribut_list_0.0 -0.8758554 -0.7279376 0.29008144 0.17467758 -0.31465998 -0.18249713 1.3470845 0.42457122 -0.1995547 0.55638486 0.81563824 -0.69891167 -0.36210433 0.5755893 0.010752571 -0.30733168 -0.12914565 0.5389435 -0.58889735 -0.026111098 -0.6085575 0.94059664 0.6280506 0.6223936 0.23524854 -0.01662677 -0.3454406 0.13317578 0.03496993 -0.7452347 -0.4086473 0.016576836
u_atribut_cute_0.0 -0.8699372 -0.7987855 0.24854335 0.22623675 -0.2819141 -0.20693871 1.3767065 0.3876278 -0.18982144 0.5835295 0.8523178 -0.7032529 -0.33430105 0.60480714 -0.005315953 -0.31373352 -0.14703968 0.4803525 -0.5615804 -0.010848271 -0.6264175 0.92556566 0.6218046 0.6269298 0.19377708 -0.026532844 -0.35816333 0.12579636 0.043673392 -0.71800345 -0.35324338 0.022062883
u_atribut_profile_0.0 -0.8766892 -0.7706793 0.30631545 0.24549495 -0.28931177 -0.22615603 1.3423576 0.43613783 -0.15961199 0.5666159 0.78536505 -0.714853 -0.34631673 0.5647088 0.02421424 -0.34506905 -0.13396779 0.47632638 -0.59173274 -0.008986433 -0.6360517 0.9148877 0.62038803 0.607093 0.1975485 -0.036705106 -0.33295956 0.19108437 -0.003896049 -0.7628697 -0.37788638 0.025983427
u_atribut_hot_0.0 -0.7442246 -0.85915774 0.615532 0.09342689 -0.60498315 -0.5084437 1.4737055 0.3218354 -0.1751656 0.5033032 1.083261 -0.44776317 -0.2560339 0.046335705 0.07620743 0.04745504 0.2148825 0.5511006 -0.38961223 -0.070123516 -0.5958032 1.067187 0.43066677 0.6893622 -0.081630036 0.23942116 -0.31426644 0.22942957 -0.3251281 -1.0559738 -0.5188441 -0.30336758
u_atribut_writer_0.0 -0.7145674 -0.85145277 0.6294856 0.10665525 -0.4916103 -0.4611377 1.2889069 0.32822496 0.111765645 0.65612805 1.2914977 -0.592137 -0.18525033 0.03480521 0.10713154 0.062498823 0.3652268 0.4433881 -0.6053387 -0.108340025 -0.51676923 0.93554884 0.3781925 0.59041995 0.100515336 0.31970158 -0.36484182 0.16188593 -0.32806242 -1.0436045 -0.36655948 -0.08924868
u_atribut_note_0.0 -0.8333468 -0.86562693 0.54395723 0.21757478 -0.5493145 -0.46837687 1.2747482 0.4745086 -0.11953221 0.31241116 1.2483414 -0.5289466 -0.3112636 -0.024012962 0.14710285 -0.1364795 0.24711277 0.53951776 -0.4388246 -0.01387944 -0.8394338 0.9953914 0.24653734 0.4514231 0.090015434 0.47423744 -0.53276795 0.34834868 -0.44722775 -1.1449962 -0.39286426 -0.24292284
u_atribut_more_0.0 -0.7600545 -0.873283 0.57754874 0.18334594 -0.94082445 -1.1136584 1.4734142 -0.008349845 -0.18196154 0.20305838 1.0310761 -0.6106666 -0.04381899 0.14394605 0.121656165 -0.19217227 0.29657307 0.200901 -0.35609764 0.106967434 -0.8486381 1.1181796 0.5017459 0.5614032 -0.1442509 0.47183403 -0.27935773 0.2951354 -0.20527491 -1.268731 -0.2995806 -0.107851945
u_atribut_funny_0.0 -0.6516942 -0.996284 0.41651458 0.07794079 -0.15479462 -0.25939456 1.4723494 0.9016606 -0.09575567 0.23287049 1.2310202 -0.17318457 -0.18626787 0.10659916 -0.24774879 0.039919708 0.16683987 0.16071424 -0.21681751 -0.1805842 -0.43697053 1.1546326 0.59315103 0.7459125 -0.37396908 0.48960185 -0.23407309 0.4577471 0.009337488 -1.1551871 -0.24400096 -0.6035442
recentija_atr_funny_1 -1.0423445 -0.93282676 0.3102313 0.62507915 0.77350444 0.018817062 -0.5504366 0.03738559 -0.39165324 -0.9985914 0.37909663 -0.74268466 0.62289166 -0.28109217 -0.15209404 -0.24747787 -0.49613678 1.1719607 0.24468394 1.3628294 -0.8899842 1.7966198 -0.07743173 0.94721013 0.3136706 0.23628409 -0.5025645 0.09593024 0.07472939 0.7657952 -0.7271835 0.13552137
recentija_atr_stars_3 0.50514597 -0.7747508 0.5176453 -0.12492931 -0.21572545 -0.66330844 1.2872713 1.0719846 -1.081597 -0.26988414 -0.86307144 -0.60162956 -0.5528633 0.24847376 -0.11435961 -0.12931001 0.24624938 2.0625956 -0.20741071 1.329935 0.053866383 0.7989722 -0.0066169263 -0.20822203 -0.296838 0.77922654 -0.063787475 0.013743821 -0.3454398 0.6734653 -0.34120288 0.33134845
u_atribut_plain_0.0 -0.664869 -1.185119 0.5316446 -0.38192004 -0.8251126 -0.66976285 1.4479312 0.06758351 -0.109791875 0.37178576 1.5061424 -0.44575194 -0.4272249 -0.15819125 -0.08257947 -0.25964698 0.45465645 0.42289802 0.14846298 0.12409821 -0.35679862 1.3293803 0.666558 0.330138 -0.11486029 0.115025304 -0.377917 -0.6004157 -0.32119897 -0.80783916 -0.37622657 -0.8947406
dan_Wednesday -0.4792673 0.14042129 0.79072136 0.041884642 0.48693335 0.043070935 0.079695776 0.010569721 -0.706687 0.21433267 0.48674905 -0.47454137 -0.20144771 -0.58719194 -0.2153792 0.25521576 -0.9745895 -0.3791179 0.4865122 0.6693323 -0.1323044 -0.18378358 0.7748468 -0.302091 0.47115326 -0.11035186 -0.5424494 0.5630778 0.028825969 -0.09004498 0.62892133 0.71671426
dan_Thursday -0.39764926 0.15398002 0.7765859 -0.05935121 0.48259783 0.10639923 0.10283849 -0.040462073 -0.7101504 0.12307611 0.4306659 -0.42698386 -0.2769197 -0.50114214 -0.18817028 0.28965953 -1.0262159 -0.37675217 0.43682596 0.6103636 -0.15230691 -0.11425169 0.8322334 -0.31701705 0.39654246 -0.12653874 -0.6247733 0.5898678 0.004332985 -0.13386543 0.6173593 0.76523805
u_atribut_cool_0.0 -0.7106352 -0.8154908 0.92557186 -0.037909087 -0.29246926 -0.80199355 1.2041785 0.6257356 0.14234555 0.5698784 1.06568 -0.6990476 -0.57259417 0.05320348 0.35236263 -0.02991521 0.30983016 -0.07411105 -0.29803216 0.05830364 -0.9421544 1.012979 1.1245676 0.3864616 0.16441461 0.7259217 -0.14770387 0.2850669 -0.26932618 -0.9045542 -0.6955831 -0.631202
dan_Tuesday -0.46135852 0.18909203 0.77531236 0.008942758 0.52069634 0.08688875 0.07615909 -0.019751355 -0.69735354 0.14460732 0.5260652 -0.3941434 -0.24515454 -0.56858164 -0.1942262 0.2641461 -1.0227231 -0.28952155 0.41184554 0.64370835 -0.17080396 -0.19179127 0.8071581 -0.32536903 0.45349103 -0.09083221 -0.6216946 0.550677 -0.06150006 -0.11760722 0.6395565 0.70903456
dan_Friday -0.40196902 0.1332037 0.86594594 -0.075987145 0.5515971 0.17220044 0.061421067 -0.0151825845 -0.67449224 0.12541981 0.46736264 -0.38312533 -0.29538348 -0.46887684 -0.22602329 0.34399754 -0.80680597 -0.29570326 0.41652706 0.6806437 -0.18567884 -0.08611231 0.83462137 -0.2762637 0.3895679 -0.16379592 -0.55751395 0.62331927 -0.09440331 -0.2108243 0.63849604 0.7638478
u_atribut_fans_0.0 -1.1853025 -1.449918 0.4939994 -0.09353409 -0.5122191 -0.7928763 1.0411079 0.66686887 -0.16677175 0.95857704 1.420627 -0.51828307 -0.13236968 0.12220834 0.07271128 0.5059336 0.84922206 0.64475787 -0.32055238 0.1194127 -0.5538887 0.6647387 0.32215765 0.036971074 -0.09781557 0.5600666 -0.6742656 0.41021255 -0.009254723 -0.74303126 -0.4133202 -0.4933319
u_atribut_average_rate_low -0.90967715 -0.72289324 -0.32461226 0.35294738 0.38933846 -0.7714564 1.7347839 0.52809525 -0.109246984 0.6130934 0.91381824 -0.3829062 -0.79453415 0.5524416 0.30646273 -0.56238735 0.4572439 0.70729727 -0.2758407 0.42831942 -0.2380122 1.238916 0.38482004 0.6686274 0.41895372 0.20088953 -0.57184726 0.14280245 0.10587685 -0.63080126 -1.0926157 0.48911506
dan_Monday -0.41691768 0.06060467 0.6934707 -0.075553395 0.5108476 0.13490993 0.13743958 -0.17914413 -0.66450536 0.061270032 0.49725994 -0.48032814 -0.3009535 -0.5391847 -0.26078084 0.27446416 -1.1042 -0.30851004 0.33826467 0.62985134 -0.19134343 -0.23940074 0.87703127 -0.4061698 0.5242469 -0.04741567 -0.5828935 0.51967543 0.033272147 -0.13941725 0.61454886 0.58136576
dan_Saturday -0.24533306 0.15649483 1.0785608 -0.29799324 0.4821498 0.06236037 -0.105897054 -0.05322668 -0.8762008 0.30795115 0.27028945 -0.55107147 -0.47454625 -0.4323882 -0.1450328 0.27221838 -0.7521051 -0.07736199 0.44913736 0.6701755 -0.22730438 -0.081985 0.86198664 -0.29682252 0.38931122 -0.13032803 -0.46154708 0.5036161 -0.18927531 -0.33206058 0.6904879 0.62298876
atribut_Accepts Credit Cards 0.29255727 0.4007742 1.121141 -0.30845216 0.008332808 0.29631472 -0.05995141 -0.016751055 -0.27668118 0.3547781 0.34576494 -0.32773393 0.041375436 -0.5364716 -0.46308035 0.27728224 -0.51073974 0.4645062 0.5394708 0.6115659 0.62133574 0.36136752 0.77857035 0.1299519 0.2391628 0.18815094 -0.30643746 0.09188921 -0.27245584 -0.3235827 0.046858832 0.6132659
atribut_Price Range 0.31319416 0.41067433 1.191829 -0.31175146 -0.0021761218 0.26331443 -0.10950756 0.033436544 -0.32594845 0.3306634 0.3844275 -0.2998723 -0.016871454 -0.55974585 -0.43304858 0.25288418 -0.5625358 0.51559186 0.5273914 0.62914217 0.5862724 0.3650344 0.7655125 0.1584009 0.25101832 0.22246027 -0.2887617 0.06765196 -0.2899322 -0.32127944 0.041611392 0.60265523
atribut_vrednost_Accepts Credit Cards_true 0.30858058 0.37961057 1.1359673 -0.26749656 0.024955714 0.3619646 -0.04279502 0.008779611 -0.28998908 0.3586012 0.33635637 -0.3275075 0.048026714 -0.5911406 -0.42427847 0.24404585 -0.58261454 0.5560381 0.56781197 0.6613148 0.6110171 0.36718863 0.7537376 0.19174734 0.26065502 0.23943296 -0.21069843 0.10217893 -0.28488103 -0.28037286 0.046032846 0.5785421
atribut_valet 0.3089334 0.37345302 1.1555452 -0.3434102 0.0057008825 0.33536106 -0.13501397 0.06845222 -0.36260873 0.34400612 0.31339648 -0.3463146 -0.023607649 -0.49880987 -0.46914563 0.19742289 -0.6114934 0.52125245 0.5536111 0.63064665 0.6607098 0.3830281 0.81960577 0.18473387 0.34103435 0.17478086 -0.1789042 0.09474712 -0.33606943 -0.3479884 0.024184596 0.6085673
atribut_street 0.3095206 0.36638844 1.1699395 -0.28824788 0.010492347 0.33248878 -0.15913835 0.03832275 -0.3320128 0.36347863 0.33982205 -0.32061267 -0.027051976 -0.52231514 -0.39058736 0.24278529 -0.6339402 0.5243017 0.54217845 0.60184914 0.61334306 0.37534386 0.854431 0.21941291 0.28393304 0.19015235 -0.2160713 0.104965955 -0.3229916 -0.3099436 0.03816093 0.61468345
atribut_lot 0.31740203 0.35375267 1.1543694 -0.3215027 0.0049103512 0.33235124 -0.15428108 0.006200472 -0.39751804 0.3542659 0.3169921 -0.33046415 -0.070935376 -0.52052695 -0.4179037 0.27798042 -0.61007434 0.5304804 0.5372138 0.60590184 0.6586736 0.3912301 0.8108984 0.21723874 0.30893335 0.17258331 -0.1905552 0.06889017 -0.3073988 -0.37105545 -0.006072468 0.5596692
atribut_validated 0.32464874 0.3692541 1.1682674 -0.3246412 0.0010117693 0.3514656 -0.13168207 0.027079243 -0.34077594 0.3621661 0.32237595 -0.3385874 -0.049373213 -0.54769653 -0.43411866 0.27017152 -0.5854385 0.47669894 0.55263335 0.54941183 0.6444956 0.41635212 0.8410644 0.22072394 0.27268738 0.19159397 -0.20222351 0.06515648 -0.3243351 -0.37199306 0.011890861 0.5606328
atribut_garage 0.30939582 0.36316618 1.1331905 -0.32975054 0.019091666 0.33650008 -0.14751184 0.03158651 -0.3371985 0.37011614 0.35431662 -0.30298802 -0.027528675 -0.5295717 -0.45753816 0.231908 -0.5717433 0.5067072 0.5616259 0.61849594 0.64184505 0.36501932 0.8261599 0.19661006 0.28494456 0.18199368 -0.25353107 0.102533735 -0.29947868 -0.3663072 0.017478097 0.59610856
atribut_vrednost_validated_false 0.28584105 0.35648394 1.1673774 -0.31331843 0.0052635265 0.32172957 -0.14585452 0.017815342 -0.3569012 0.36608773 0.33095828 -0.29721418 -0.011245978 -0.53549683 -0.43022963 0.2677022 -0.6223402 0.5245117 0.51951694 0.64047027 0.6172465 0.37845182 0.86092556 0.20037064 0.27137932 0.21288016 -0.21720986 0.0812413 -0.30046228 -0.31387258 -0.0040498166 0.61195856
u_atribut_average_rate_high -0.65811086 -1.1310023 0.4609781 0.076272674 -0.96833247 0.08045232 0.92966336 0.5567578 -0.31963474 0.5851702 0.5686296 -1.029021 0.64759797 0.3806411 -0.04852377 -0.04092586 -0.9542143 0.3588051 -0.91857755 -0.46206185 -0.9671843 1.2682939 0.79950446 0.3612592 -0.04264077 0.06329274 -0.46979162 0.16131732 -0.07385283 -0.9455472 0.32430568 -0.8574493
recentija_atr_useful_2 0.4303889 -0.24349515 -0.7928 0.90705824 -0.38267833 -0.14247417 0.43422598 0.43300778 0.04781084 -0.38203323 -0.0155253885 -1.5783014 -0.4877225 -0.20035453 0.280395 0.5261742 -1.6709374 0.5228934 0.38414124 0.8910543 -0.09998712 0.83504534 0.620116 1.0954176 0.38090858 0.2841469 -1.1080949 0.5633693 -1.0619453 1.0095471 -1.2953856 0.038108062
atribut_vrednost_street_false 0.2392425 0.3214302 1.1772147 -0.26094517 0.024692193 0.26234877 -0.14260904 -0.0767239 -0.39272738 0.26976866 0.3895841 -0.2870034 -0.056678396 -0.49462414 -0.606429 0.23420343 -0.4850952 0.64706963 0.5273435 0.57229996 0.6500589 0.31600156 0.86248565 0.1644384 0.31949455 0.13372327 -0.22490957 -0.050188895 -0.3523979 -0.41983435 0.0875534 0.515651
atribut_vrednost_valet_false 0.22834925 0.41539067 1.2348211 -0.2792822 0.063570164 0.32502884 -0.17610632 0.07234525 -0.4458062 0.55186737 0.36216503 -0.18443638 -0.04979484 -0.6071307 -0.44988137 0.327299 -0.61728436 0.5534689 0.4351823 0.54517734 0.69660616 0.33579993 0.83187044 0.3284811 0.20340408 0.28844982 -0.32276157 0.031725653 -0.27891177 -0.3612502 -0.04872548 0.452589
dan_Sunday -0.13600995 0.13781643 0.9804574 -0.51943636 0.43871093 -0.15350178 0.10894314 -0.21704888 -1.1771427 0.15985502 0.38147718 -0.5448242 -0.5106195 -0.70228714 -0.078056775 0.1569452 -1.3156376 0.11460044 0.5211892 0.7202267 0.15587288 -0.14619185 0.5409684 -0.19009504 0.79110265 0.20009905 -0.14648041 0.1601957 0.057387482 -0.44554555 0.42691514 0.33850706
atribut_vrednost_garage_false 0.054550238 0.38536674 1.2084475 -0.37082177 -0.1844777 0.31214303 -0.35931745 0.14405575 -0.41873088 0.60976636 0.4831362 -0.11775581 0.08678079 -0.456353 -0.3503396 0.57390016 -0.64956295 0.39143595 0.5770745 0.5633038 0.68864787 0.58728564 0.926738 0.3622848 0.12740445 0.48590824 -0.14656647 -0.0065358975 -0.35304505 -0.3263702 0.00077923463 0.31706074
u_atribut_uv_funny_0.0 -1.4182047 -0.46367463 0.8836068 0.016999919 -0.8817996 -0.6073146 0.9322422 0.5478256 0.60199684 0.6454242 0.9896138 -0.6586095 -0.44961646 -0.09050052 0.09913941 -0.7556776 0.5388754 0.25415084 -0.035681117 -0.2359369 0.34591633 1.2609705 0.6778855 -0.4314891 -0.08565074 0.6795314 -0.87238914 -0.24436525 -0.38831055 -1.161453 0.06051272 -0.5216745
atribut_By Appointment Only -0.024792088 -1.1527824 0.68852776 1.3318199 -1.1890209 -0.5511554 0.9922875 0.7041652 -1.124588 0.9506279 0.48227593 0.82474786 0.7906731 0.074350685 -0.15849236 0.36009446 -0.5454906 -1.4068937 0.31732604 2.0805864 0.22093642 -0.4892534 1.1257845 0.3011261 -0.26533392 0.06321317 -0.74128366 -0.729305 -0.7232688 -0.5205309 0.34290114 1.9291253
recentija_atr_stars_1 -0.5428614 0.06561616 -0.26361942 0.05477148 -0.013702732 -1.0940001 1.3095636 0.7448731 0.7583192 -0.019030575 0.8498683 0.63567966 0.24559692 0.25995383 0.40972835 0.5545231 -0.22441413 0.915839 0.52486485 1.923171 0.59027106 1.2603978 -0.017826768 1.1167557 1.3463734 0.79166454 -0.8497577 -0.6615787 0.44926172 0.59514844 0.12235959 -0.05024955
biznis_atribut_stars_4 0.28560638 -0.47552842 0.84256524 -0.2867174 -0.0049563493 0.02308597 0.039333392 0.757647 -0.002629973 -0.115648024 0.6465516 0.050069798 0.12861876 -0.024572622 -0.5296939 0.081579775 -1.5527763 0.8453637 0.6351952 0.4445454 0.4782428 -0.05636016 0.56856805 -0.46017656 0.07539198 0.7175056 -0.59930474 -0.29352456 0.2552191 0.32361698 0.7824106 1.1918406
atribut_Wheelchair Accessible 0.2320894 0.26664874 1.2141056 -0.31555742 0.24036507 0.3062738 -0.12592228 -0.10848966 -0.5467283 0.31249118 0.53114504 -0.52377635 0.05227904 -0.5531721 -0.3231257 0.19608508 -0.50213265 0.48112676 0.8540617 0.6271661 0.35669935 0.48861536 0.68129003 0.11256585 0.37448147 0.12918526 -0.0023322727 0.07230684 -0.1133741 -0.20744982 0.15107992 0.777111
atribut_vrednost_Wheelchair Accessible_true 0.33163133 0.29237354 1.1793613 -0.29014146 0.28650153 0.22443163 -0.07939885 -0.05080275 -0.6260517 0.3400187 0.58815366 -0.4304972 0.07184802 -0.5218713 -0.38555065 0.20259403 -0.591698 0.5680046 0.89803046 0.62484115 0.4252598 0.42889044 0.71591735 0.17368679 0.52679574 0.050131924 0.05338068 0.012160671 -0.11262083 -0.21387808 0.21336433 0.7476658
u_atribut_funny_1.0 -1.1934828 -0.3385829 -0.4209896 0.30299878 -0.4940044 -0.5755703 1.4043097 0.04942886 -0.5561891 1.1579565 -0.0064453 -1.6933477 -0.17538938 0.5658871 0.69390124 -0.9114644 -0.2378563 1.3863167 -0.887228 0.24170013 -1.1447061 1.2822076 0.7220461 0.2567695 1.2471968 -0.6757304 -1.0446942 -0.49230397 -0.36856407 -0.28041536 -0.48203778 1.0804057
recentija_atr_stars_2 -0.14846613 -1.587567 -0.45848414 1.2346742 0.4619415 -0.5430161 0.37464726 0.4889534 0.3366323 0.1948637 0.20142414 -1.0889866 0.19624503 -0.9054657 -1.0120004 -0.8493552 1.1271102 1.4430959 0.32417506 0.49751958 1.3792841 0.3186895 0.4671104 1.6709926 0.24552692 0.2283669 -0.68161654 0.49203357 -0.21192399 -0.044708896 -0.31614813 0.35447365
u_atribut_more_1.0 -1.2473321 -0.5636003 -0.4352097 0.1776052 1.1127478 1.0654374 1.4965267 1.6738346 -0.4819927 1.2229209 0.087142386 -0.9506854 -0.46684897 0.4221875 -0.21016806 -0.5522102 -0.8880707 1.1950307 -0.7111051 -0.06841373 -0.46813092 1.1777098 0.7606539 0.3568356 0.50633264 -0.84110373 -1.0000229 -0.32014164 -0.13129185 -0.31176054 -0.53974396 0.12075349
atribut_vrednost_Price Range_2 0.14434725 0.15741162 1.568287 0.23126116 0.056510657 0.53211623 0.25197098 0.123919316 -0.2514703 0.37689272 0.2105291 -0.47216502 0.24460162 -0.73974836 -0.09836832 0.343085 -0.85166615 0.38899216 0.68941283 0.47620234 1.151938 -0.056407508 0.6055035 0.42022547 0.40005443 0.71595377 -0.28016233 0.48115727 0.036023233 -0.4945774 -0.0598692 0.22386004
atribut_vrednost_lot_true -0.3310314 0.0102773905 1.3401055 -0.3394989 0.0115072 0.24642026 -0.52843046 -0.10115376 -0.6231169 0.50399876 0.6611209 -0.14411819 0.15539385 -0.2989969 -0.45026007 0.65277576 -0.6231469 0.43623817 0.85855776 0.31760377 0.5798235 0.5749256 0.9072863 0.4640336 0.16029608 0.7778498 -0.08312747 -0.051086847 -0.4797412 -0.42683455 0.44325712 0.04579576
u_atribut_note_1.0 -0.84119856 -0.3195163 -0.023505172 0.27831197 0.932236 -0.2813709 1.7667463 0.8107728 -0.671756 0.8508703 -0.15442896 -1.3394033 -0.01760477 0.9187562 -0.22699077 -0.4340104 -1.0121258 0.51303405 -0.4797905 -0.0070764064 -0.37919295 1.3779842 1.271737 0.5107887 -0.1635083 -1.4372046 -0.41869402 -0.4792748 0.46109387 -0.3219281 -0.453687 0.3330065
u_atribut_writer_1.0 -1.2150992 -0.27200088 -0.3942354 0.34564853 0.43868276 -0.038072366 1.399859 1.250719 -1.0585039 0.500086 -0.33702707 -1.0410502 -0.5210502 0.615673 -0.2243706 -0.7266998 -1.1827589 0.6059196 -0.23357202 -0.013482224 -0.84058756 1.2697759 1.1262585 0.38110372 0.08234229 -1.0264342 -0.87041783 -0.1659494 0.19530918 -0.4192895 -0.4719515 0.3589995
biznis_atribut_stars_5 0.18401523 0.6529382 1.2791924 1.1690215 -0.34002438 0.5143958 -0.25712797 -0.1831963 -1.1884539 0.95879376 0.56666315 -0.29019445 1.121612 -1.817262 -0.16747254 0.84795374 0.44665298 -1.8573579 -0.20511538 0.7154937 -0.060218547 0.873715 2.2038283 -0.349313 0.29112345 -1.2961931 -0.8211615 1.0444933 -1.5696334 -0.114141785 -0.024847062 0.037178725
recentija_atr_useful_3 -0.5194727 -1.11901 -0.19595829 0.7584002 0.5301445 -0.60457814 0.7504776 -0.13448708 0.81944793 -0.7020438 -0.39851227 -1.1904155 0.6439562 0.41436046 -0.15365802 1.4661654 0.06801669 1.0183822 0.43790063 1.0193801 -0.5717321 1.2643454 1.4064374 0.3839533 -0.25682947 -0.011237702 0.1958969 -0.79687613 -0.030903304 -0.10431663 0.83858275 1.2316824
u_atribut_fans_1.0 0.14915487 0.55867857 0.13603209 -0.49424464 -0.73578537 0.12895696 2.3835373 0.47765416 0.28899378 -0.4459154 0.25532845 -0.44983295 0.2278998 -0.4991521 0.7362099 -1.3531348 -0.7514553 -0.23967476 -0.33364025 0.11423982 -0.57501656 3.1015215 1.0923873 0.82680964 -0.06644963 -0.24499772 -0.110716276 -0.83527607 -1.1287029 -2.1938677 -0.4263831 0.004337329
u_atribut_fans_2.0 -0.48904052 -0.5316169 -0.35378855 1.206751 1.1669863 -0.42284635 1.0216745 0.9582456 -0.9495674 0.8982688 0.10136336 -1.431337 -0.4321668 1.1278695 -0.24606209 -0.44306463 -0.85874563 0.84167594 -0.46719906 -0.38024732 -0.9974453 0.898296 0.7816562 0.55466217 0.7999801 -0.4145764 -1.2115904 0.08172801 0.8005867 -0.5453065 -0.3948514 0.3560501
u_atribut_cool_1.0 -0.6971548 -0.86706924 -0.78604764 0.26756072 -0.86507374 0.033463635 1.8706366 0.12472656 -0.61177725 0.76222706 1.2564704 -0.1851866 0.74989486 -0.5032194 -0.09857506 0.041453928 0.456218 1.9996192 0.114081755 -0.32055226 0.28689364 1.8272468 -1.0860583 0.49383888 -0.57437396 -0.54431736 -1.5577855 -0.38828146 -0.7149576 -1.8232918 0.3086855 0.22678714
u_atribut_uv_cool_3.0 0.27638265 -1.4826766 -0.16714077 -0.16377671 -0.42188343 -0.6087292 1.3805194 1.0417318 -0.38359812 -0.09796589 0.5714377 -0.65785176 -0.013457096 -0.55776095 1.1119622 0.83232945 0.2602708 0.19377206 0.091736704 -0.46803603 -0.69903964 1.0356678 0.6181776 0.40384755 -0.47515747 -0.9883371 -0.91607386 0.2815578 -0.6581316 -0.9380583 -0.650202 0.47694483
recentija_atr_funny_2 0.60983145 -0.6805736 -1.1969651 -0.42198747 -0.5254055 -0.30413345 0.5855817 -0.21152529 -0.9220892 0.50619423 -0.24971381 -1.1081399 -0.0168732 0.052840903 -0.96731335 0.9371105 -0.9607272 0.6084556 0.72323656 0.36171934 -0.32365498 1.9184637 1.6682875 1.4592634 -0.36668265 0.8190586 -0.45334694 -0.9060392 1.3155434 0.93176574 -0.46450472 0.5026203
u_atribut_plain_2.0 -1.019256 -0.2753585 -0.023939686 0.7486037 0.8371256 -0.15681997 1.5686882 0.79409003 -0.5555383 0.31601843 0.091498286 -1.0276026 -0.27427956 0.9588143 0.08802714 -0.74667543 -1.2822949 0.48844805 -0.41757956 0.42118785 -0.7502122 1.0760837 0.92498225 0.25526056 0.71754605 -1.2658025 -1.0122229 -0.841631 0.361884 -0.2919926 -0.18988422 0.23685658
u_atribut_hot_1.0 -0.96230924 -0.14902845 -0.6037602 0.57963324 1.0730827 0.13580544 1.2073594 1.2289629 -0.793074 0.71262705 -0.05827323 -1.4985983 -0.13876043 0.95856375 -0.10561977 -0.8303545 -1.0810287 0.37699187 -0.433187 0.017756399 -1.079062 0.9964866 1.0373651 -0.046244536 0.68386674 -0.7213255 -0.98990077 -0.3738864 0.4075163 -0.5175295 -0.058662448 0.82241434
u_atribut_uv_funny_3.0 -0.7218183 0.06072803 -0.10123035 0.76760286 0.60697526 -0.3074905 1.263869 0.71929073 -0.3386116 0.47304744 -0.21392669 -1.2224716 -0.40776378 0.73925734 -0.27675456 -1.0141909 -1.1192634 0.9265331 -0.98564225 0.03955969 -0.61329126 1.3009125 0.9406661 0.30423805 0.10598396 -0.5997735 -1.1887037 -0.656678 0.5070433 -0.3064512 -0.53451276 0.9633988
u_atribut_uv_useful_4.0 -1.0079788 -0.0036457 0.053069293 1.1226261 0.8857419 -0.34247875 1.3747412 0.61707246 -0.21477252 0.5915972 -0.1938747 -1.0589786 -0.54840577 0.6698797 0.121116936 -1.210912 -1.2427799 0.951946 -0.6565115 -0.16077206 -0.68707186 1.4866513 1.1465075 0.20012906 0.03587364 -0.9289995 -0.92595637 -0.47221935 0.6931836 -0.48907635 -0.34487298 0.8042576
u_atribut_review_count_4.0 -0.8904129 -0.29721805 0.15051243 0.93011296 0.6597636 0.13480292 1.1603879 0.6821452 -1.0094213 0.49572098 -0.43521687 -0.8477072 -0.023491202 1.0560184 0.08659801 -0.9916245 -0.47657332 0.82871735 -0.5394119 -0.27153295 -0.47569433 1.1778816 1.493959 0.20878105 0.38719764 -0.54792297 -0.75434196 -0.84109855 0.33381373 -0.75519246 -0.5982583 0.7243924
u_atribut_cool_2.0 -0.8310068 -0.020083835 -0.11665441 0.41633365 1.0004498 -0.3994811 1.240028 1.1658907 -0.8138643 0.29354933 -0.24138165 -1.4445318 -0.057706807 1.0660518 -0.0009289958 -0.6333004 -1.299357 0.018549157 -0.7982129 0.22182578 -1.0828844 0.9983268 1.57055 0.23931102 0.43677777 -0.7249634 -0.72170305 -0.412926 0.6994507 -0.28557268 -0.5152387 0.5577708
atribut_Good for Kids 0.4789534 0.074675195 1.428104 -0.08443823 0.0506905 0.009228687 0.31879824 0.5325894 -0.5119084 0.4350527 0.4643471 -0.58266443 -0.25419366 -0.66434395 0.031037536 0.2845952 -0.28222957 0.58607256 0.7308198 0.11556171 0.7394402 -0.063746914 0.7143737 -0.13107176 0.07180693 -0.37446168 -0.43937445 0.7090165 -0.40492722 0.19975524 0.67258716 0.81478804
u_atribut_uv_cool_4.0 -0.81983924 0.1478052 -0.29027066 0.9512331 0.93032384 -0.3282674 1.2475747 0.8865734 -0.60287535 0.58881295 -0.16094476 -1.2439667 -0.3510155 0.96361285 -0.29686776 -1.0227311 -1.3098305 0.78072566 -0.7980179 -0.08490191 -0.7319543 1.4655745 0.9056524 0.29071695 0.3758948 -0.45208284 -0.99230826 -0.50003594 0.53669053 -0.49527338 -0.15828143 0.76393276
u_atribut_plain_1.0 -0.775317 0.18306528 -0.25868243 0.632065 0.3952546 -0.11380198 1.1193395 1.6302751 -0.3464655 1.0728263 -0.10703054 -1.1778108 0.6361979 -0.43344918 0.5226004 0.6432046 0.5610116 0.731225 -1.3868377 -0.49266595 -1.0863374 1.1181825 0.41272926 0.7057651 -0.4135571 0.9349127 -1.0184871 2.0323422 -0.49652013 -2.0616071 -0.68328834 0.97934145
u_atribut_review_count_3.0 -0.04147918 -0.7754306 -0.5460694 -0.3168015 0.18660876 -2.0159314 1.5333982 1.4595175 0.35517386 -0.07017458 0.8515107 -0.927414 -0.81054497 -1.427025 -0.5840039 0.4759815 -0.9434604 0.99611145 -0.63556767 -0.32147223 -1.9299747 1.7972286 -0.24911863 0.6549258 -0.26959437 -0.7886715 -1.3813066 0.9350036 0.36464584 -0.91049546 0.14791687 -0.21036266
u_atribut_review_count_2.0 -0.08052831 -0.9099208 -0.21617526 0.96812636 -0.75025934 0.08834432 1.8633125 0.4950627 -1.1616977 0.89114547 1.4479922 -1.7024126 1.2101752 1.0101205 1.5887507 0.47662365 1.7357086 -0.52836215 0.35164616 0.6943783 0.67153794 1.3236858 0.68793607 -0.1435126 0.20790881 0.52729243 0.36658317 0.008578167 -1.444493 -1.649597 -0.7724081 -0.89658684
u_atribut_uv_funny_2.0 -0.96550775 -0.7056448 -0.010216101 0.30868506 0.42119372 -1.1321281 1.0615641 1.2543402 -1.352596 0.5417793 0.63622934 -0.39669496 -0.14273424 -0.46732593 1.0593563 0.7022259 0.6596921 0.040690105 0.7102036 -0.7956502 -1.3846629 1.9733273 0.37313312 0.57457197 1.1034938 -1.1205883 -0.16125269 0.60612154 -0.4561177 -1.6577756 0.81693286 -0.07266681
u_atribut_uv_cool_2.0 -1.3341566 -0.52594924 -0.24951066 -0.22040415 0.7586082 -0.41525942 1.4259998 -0.39082587 -0.9205809 1.4474881 1.0714904 -0.5802877 0.26454017 -0.42089918 -1.0859988 -0.17021689 0.33300605 0.29524544 -0.5032699 0.6771434 -0.7499066 1.9500403 -0.057994336 -0.24477495 0.14879611 0.44635546 0.24481766 1.0841781 -0.7033543 -2.152926 -0.29868275 -1.7799246
biznis_atribut_review_count_0.0 0.12822656 0.5099769 1.6111015 2.0376384 -1.5715103 -0.43877906 0.910461 0.31424302 0.90477175 0.743354 0.8155658 1.6545043 0.46291336 -1.8365066 -0.17837098 1.1026449 -0.9840042 -0.21022727 -1.6299359 3.0084546 -0.20114075 0.79711145 0.88936895 -1.5165057 -0.16052626 0.4628231 -1.6541934 -0.6172422 0.27900523 -0.3457139 -0.7324089 1.366944
u_atribut_uv_useful_3.0 0.3099453 -0.85305864 -0.3393791 -0.5733558 -0.49177784 -0.66472745 0.76831186 1.6254928 -1.3632762 0.28807685 0.3411344 -0.8786874 0.40313703 0.07449837 -0.76492345 1.1439956 0.63332045 0.07628922 -0.37767357 -0.30922624 -1.030148 1.6953306 -0.0052976534 0.84265894 0.7384834 0.060248464 -0.9909787 -0.2682747 -1.2724677 -1.504683 -0.8567117 0.51145947
u_atribut_uv_useful_2.0 -2.0220306 -1.0878474 -0.40272096 0.39091572 0.62919754 -0.93289554 2.701012 -0.042360343 0.37581822 -0.19833672 1.6992804 -1.0876569 0.17315274 -1.6317779 1.5953326 -0.2341534 0.38509843 0.39270136 -0.6808978 0.7675581 -0.32916632 0.9600468 0.76799446 -0.3567381 -0.72199756 -0.5455339 -0.30198082 0.90137887 -0.011855359 -0.6676697 0.35508674 -1.1378026
u_atribut_uv_useful_1.0 0.71495533 -0.6244138 -0.82451254 0.50832355 -1.69914 0.29384097 0.8909224 0.29079694 0.048580877 2.0128407 0.6960135 -0.28989413 -0.95771605 0.094985224 0.019173669 -0.4023539 1.161072 0.6094842 0.27903965 0.025642306 -0.4538437 2.1831684 0.6663521 0.34040955 0.27928743 2.0615175 -1.4296991 0.2463637 -0.059149776 -2.0499616 0.20513928 -0.7088518
u_atribut_uv_funny_1.0 0.7371528 -1.0737338 -0.80779195 -0.68421507 0.1524559 -0.005554988 1.8724066 -0.043022946 -0.30791026 0.31057492 1.5246514 -0.88238 0.79482013 -0.49008885 -0.085431464 0.61392784 0.3144272 0.4642608 -0.86150545 1.1419271 -1.0801142 0.8577276 0.6183356 0.46103746 -0.9778808 1.4959173 -1.0313581 -0.18484037 -0.14628519 -1.228558 -1.5720516 -0.72274625
atribut_vrednost_By Appointment Only_false 0.1662094 -1.1537904 0.9015872 0.42505887 -1.4438254 -1.0713185 0.3718065 0.7273691 -1.2882454 1.4357107 0.325548 1.2354056 0.43906146 0.11689458 0.70903873 0.3175751 -0.8788441 -1.2555996 -0.18536685 2.1259634 0.3176066 -0.5105108 1.6681564 0.58268803 0.015106771 0.41363975 -0.6907425 -0.85207003 -1.0830463 -0.8754384 0.026483933 2.0867202
atribut_vrednost_lot_false 1.1027175 0.8995321 0.8576869 -0.26693535 0.1067145 0.20922105 0.36184064 0.378369 -0.0017847681 0.64971405 -0.096114404 -0.40895173 -0.34906626 -0.88843155 -0.30631492 -0.40600932 -0.66716665 0.51211375 0.11444183 0.9134109 1.0484886 0.4025218 0.9077902 -0.21919195 0.23134042 -0.5945223 -0.54883236 0.36307645 -0.12011829 -0.35428554 -0.3233416 1.2765658
biznis_EWMwV5V9BxNs_U6nNVMeqw 0.7212072 -0.65144706 0.25711533 -0.6801952 0.059891995 0.6552643 -1.1205616 1.0909328 -0.2990546 -0.10887474 0.5664651 -0.67625916 0.104200706 -0.05864001 0.8084151 0.27947822 -0.3082141 1.107986 0.5756445 1.026367 0.31235468 0.40199134 0.78497714 0.033857077 0.0823978 0.1900261 -0.31697425 0.4464659 0.55951685 -1.0761045 0.47380963 0.5153554
u_atribut_review_count_1.0 -2.0154555 -1.363976 0.037176434 -1.4314445 -0.44847208 0.072142 1.0285674 -0.14066333 0.0037266796 0.41514957 -0.15925895 0.23573157 -0.31807283 -1.2603006 0.020228613 -0.6913064 0.77544093 1.4280251 -1.39555 0.5148701 -0.24981156 2.0527387 1.2078439 0.8792284 -0.41301182 1.2248476 -1.5412059 -0.031149155 -0.3639642 -0.6897828 -0.072995916 -0.8184894
biznis_2e2e7WgqU1BnpxmQL5jbfw -0.15116008 -1.0684487 -0.3938096 -0.019244183 -0.454336 -0.04959522 -0.6898057 0.027163185 -1.0981913 -0.2645713 -0.34951207 0.46891862 0.05873368 -0.30817884 0.6700249 -0.22972278 -0.26993623 0.16089076 1.1363654 0.1039259 0.64717704 0.25757468 1.1528552 -0.17382 -0.100759245 -0.20969768 -1.5812051 0.6927877 0.5549624 -0.1332036 -0.73500144 0.521042
u_atribut_uv_cool_0.0 -0.31784266 -1.1169943 1.6492326 0.34826037 -0.12524384 -0.9759243 0.9945693 0.15197009 1.1077108 0.7922382 0.7591194 -0.67646104 -0.82021177 1.1350613 0.6076517 -0.440106 0.60840285 0.89130396 -0.0870157 -0.2792549 0.3816885 1.9920403 0.74957603 -0.2535391 -0.5990891 0.8192284 -1.2577534 -0.44533312 -0.1135179 -0.57714003 -0.040274173 -0.6294345
u_atribut_review_count_0.0 -0.39797813 -0.8655489 1.0569992 1.1236204 -0.23571593 -1.0803618 0.98026633 0.5767177 0.6440335 1.5819254 2.0239534 -0.19669366 -0.7570216 0.36690262 -0.13845661 -0.3537987 -1.0383569 -0.5346912 0.63467425 -0.7721094 -0.75347036 1.8100419 0.28260344 -0.6610437 0.15161099 1.1561768 -1.0216492 -0.9310299 0.16491646 -1.0513304 -0.9154101 -0.33776635
atribut_vrednost_By Appointment Only_true -0.10038145 -0.8420894 0.428133 3.0546641 -0.2966577 0.71752733 2.1054294 0.68177813 -0.6419412 1.0502497 0.82898206 0.2912052 1.2579677 -0.23417442 -1.2189924 0.5812333 -0.4537875 -1.2103509 1.3134 2.4334683 0.4936316 0.08664901 0.7241675 -0.45787615 -0.32673407 -0.5258295 -0.9583561 -0.22891599 -0.23632677 -0.13300619 1.0564444 1.5279839
biznis_4bEjOyTaDG24SY5TxsaUNQ 0.5707837 -1.4553235 1.1119336 -0.6431059 0.54509735 0.15937755 0.15682429 0.038025483 -0.2699839 -0.92827 -0.28937158 0.051700972 0.6303964 -0.57517993 -0.30234948 0.40674707 1.1304337 -0.007579367 0.03126153 0.21269645 0.23090793 0.88394 0.7864996 -0.88069516 0.60725075 0.09142002 -0.6807682 0.10806532 1.1632521 -0.22150037 0.2710337 0.7113928
u_atribut_uv_useful_0.0 -1.6625171 -1.0133275 2.3166046 -0.16605766 0.3374474 -1.4242443 0.97129625 0.5536702 -0.08757312 -0.12237764 0.9923297 -0.48958525 -0.0023733017 0.07054365 0.017751228 -0.82594544 -0.638544 -0.18416555 -0.90510875 -0.7389515 0.38837337 1.4345436 0.45909357 -0.40800086 -0.32466975 0.9235421 -1.4411669 -0.6585528 -0.15592432 -0.47011012 -1.234194 -0.7419028
biznis_zt1TpTuJ6y9n551sw9TaEg -0.17360337 0.475789 -0.20841743 0.38008988 -0.057693273 -0.32995352 0.13313799 -0.0012660547 -0.511856 -0.5880967 -0.0014515261 -0.6939838 -0.6969616 -0.12415441 -1.6633595 0.45385376 -0.047493022 -0.5658511 -0.2339487 0.59649366 1.489372 1.8005245 0.5011706 -0.72037977 0.35090438 0.8030775 -0.06360407 -0.28532413 0.49060068 0.25313726 0.4601437 0.051483184
u_atribut_uv_cool_1.0 -1.2465031 -0.40713933 -0.35025078 0.3225703 -1.7381045 -0.5395493 1.6256002 1.028029 -0.8509855 0.42445186 1.502214 -0.4022416 0.40467542 -1.8494616 0.72177017 -0.46970952 0.4732426 -0.73841983 -0.9687215 -0.18182881 -0.4036889 0.82293755 0.9044791 0.5088654 0.47204813 2.2854815 -1.8306259 -1.033929 -0.038754866 -0.7793096 -0.5395911 0.106998764
biznis_eq6lQI039SBLC6sHm3idGA 0.6754131 0.25431353 -0.5335691 0.17903821 0.13515283 0.008159103 -0.6734739 0.56604576 -0.9625239 -0.20221889 0.41359648 0.14040981 -0.4999684 -0.37162876 -0.0061751194 -0.34036037 0.52629226 0.7571238 0.5242223 1.2595268 0.2808395 0.16654445 1.2634054 -0.87869406 -0.48920247 -0.11302789 -0.8557379 0.4711619 -0.045950245 -0.60424125 -1.164842 0.086328566
biznis_WNy1uzcmm_UHmTyR--o5IA 0.11071731 0.2542314 0.3463491 -0.548054 0.16363084 0.2835112 -0.46988037 -0.14306132 -0.89643013 0.18544139 0.6887175 0.4001547 0.62155944 -0.4138654 0.66864103 -0.29377025 -0.4986194 0.44269508 0.88092506 -0.055134907 0.92841977 0.72634625 1.5024031 0.27655667 -0.5939235 0.08939854 -0.71002704 0.837796 0.5466545 -0.6546315 0.046765216 0.8626653
biznis_atribut_review_count_1.0 -0.11929216 -0.37139046 -0.7778324 1.0162132 1.272137 -0.12180703 0.16912213 1.5267481 -0.8997053 2.619374 -0.03464519 0.23077397 0.65935713 -0.042966682 -1.7191021 1.0736101 -0.4168517 -0.37307927 -0.22854035 2.4353888 0.8677889 -0.27298236 1.7137039 0.3520133 -2.0449731 1.0869595 -0.80371165 0.7428092 -2.2596426 -0.41864324 -0.83956844 1.5009575
biznis_DO3Gk17RyJVW7zYMCtYPnw 1.2474117 -0.022233618 -0.5502131 0.21576832 0.4358805 0.35747883 -0.02067379 0.6399106 0.6048185 -0.8770694 1.4166386 -0.7882244 0.06502249 -0.60441434 -0.911206 0.34049278 0.09006158 0.054281496 -0.31365255 0.8923017 0.6006121 0.8878289 0.82931674 -0.2702149 0.5362871 -0.035152804 -0.5565217 -0.45617884 1.0041698 -0.14031185 0.73977757 0.30690184
biznis_Xhg93cMdemu5pAMkDoEdtQ -0.88462543 -0.4435774 0.29911703 0.3560791 -0.08948436 -0.6294136 -0.38672683 1.107267 -0.7488577 -1.2241766 -0.7090612 -0.086442724 -0.5717332 -0.04412697 -0.97653276 0.28290015 0.27733347 -0.6772097 0.7292602 1.0914978 1.5201404 0.80193025 0.2810636 -0.63891375 0.81120855 0.3679091 -0.43636608 0.6742094 0.40576005 -0.8001056 -0.08709586 0.6221495
biznis_tFU2Js_nbIZOrnKfYJYBBg 1.1543972 -1.3627381 0.09941973 -0.9102043 0.4529609 0.60894084 0.07046772 0.4038011 0.07093991 -0.83357346 -0.49650168 -0.79244554 -0.3709309 -0.3768549 -0.4372612 0.4054144 -0.1409694 -0.6515158 -0.4633194 0.38952148 1.0887216 1.2742888 0.8026027 -0.078884 0.859035 0.1676642 -0.26568806 0.58667487 -0.074659884 0.07279666 0.3322328 0.5449428
biznis_lliksv-tglfUz1T3B3vgvA -0.22130282 -0.22009183 -0.026507258 -1.0299203 0.19552831 -0.22416835 -0.06995954 0.19465782 -0.60578024 -0.58586985 0.58268476 0.17814071 0.3183999 -0.0006008952 -0.0392468 0.15235561 -0.8203239 -0.69294465 0.7993207 -0.3637991 2.288605 1.2768891 0.24013138 -0.015151788 0.33194998 0.32538754 -1.3809634 0.9159863 0.18429713 -0.080477126 -0.5127833 1.0963368
biznis_CZjcFdvJhksq9dy58NVEzw 0.9883581 -0.2927671 0.21357796 0.52219236 0.26699948 0.73590034 0.5808447 0.8321585 -1.52901 -1.4064338 0.59758836 0.15501393 -0.05282319 -0.7325509 -0.27674586 0.61496085 0.37408975 -0.37165484 -0.605159 0.83316636 0.7935052 0.8935451 0.6597135 -0.5993025 0.70353764 0.37717155 -0.7793087 -0.39528987 0.895761 0.6932414 -0.48301798 0.93033165
biznis_AkOruz5CrCxUmXe1p_WoRg -0.01485627 1.2404106 -0.025830677 0.28644142 0.34584096 -0.2820864 0.22142175 0.6768926 -1.3607067 -1.1701984 1.2242435 -0.309066 0.6403996 0.2462422 -0.38170356 0.6307464 -0.5387931 0.35885596 0.7482215 0.5711728 1.5879632 0.64278394 -0.11199771 -0.8365577 -0.54522586 0.41089407 -1.3601153 0.40535694 0.19190004 -0.520915 -0.6796031 0.8828765
atribut_touristy 0.29043692 -0.12505193 0.40094036 0.15276194 -0.0867493 -0.43922043 0.080235675 -0.23398526 -0.8214664 -0.3073298 0.86720294 -0.3833394 -0.446345 -0.49782777 0.15722854 0.12304348 -0.0605769 0.978967 0.012296524 0.36963278 0.73768204 0.6453888 0.9288997 -0.3899815 0.15105473 -0.25943327 0.27783912 1.4623303 0.37908116 -0.08810898 0.7280792 0.6337753
atribut_Outdoor Seating 0.3472089 -0.0392232 0.4241256 0.09860548 -0.16417639 -0.4127052 0.04167358 -0.18053575 -0.7716377 -0.22713386 0.8364339 -0.39383307 -0.3861637 -0.49650735 0.044695005 0.12034554 -0.3518074 0.99518424 0.09490882 0.34404835 0.7527115 0.5371599 0.958174 -0.33665422 0.29269964 -0.22191899 0.24625582 1.3339393 0.333549 -0.021491745 0.6535513 0.6170916
biznis_xfwRO04KbAPw_zRotCfWQQ -0.23935844 -0.34908873 0.36018354 0.3173385 0.808639 0.1643104 0.64762753 -0.61265326 -1.1772815 -1.2715518 -0.63739187 -0.58497137 0.68743455 0.15345255 -0.03970521 1.4380374 -0.16882186 -0.28486058 0.30943885 0.13115543 1.6004484 1.0542696 0.535542 0.12347204 0.28970954 0.5914239 -1.1628147 0.5189748 0.09156404 0.5461536 -0.19614913 0.88834053
atribut_Wi-Fi 0.23067796 -0.24728414 0.5086759 -0.014649724 -0.16508856 -0.17546144 0.06727911 -0.06304274 -0.62660575 -0.37188503 0.9258404 -0.36769158 -0.28024477 -0.70338243 0.11712849 0.15525508 -0.42906314 0.7204519 0.58295643 0.23018397 0.70263433 0.4459484 0.71609265 -0.112209305 0.3813716 -0.22357272 0.06254447 0.98307616 0.23794968 -0.037739035 0.39479226 0.7047966
atribut_breakfast 0.3255013 -0.124982715 0.31255543 0.13231972 -0.20114414 -0.4523925 0.1427563 -0.16996282 -0.77588505 -0.28075084 0.9204525 -0.3195348 -0.44582292 -0.5502144 0.09043937 0.07295324 -0.19749385 0.92173374 0.12374892 0.32257032 0.826171 0.6113604 0.86709255 -0.32342276 0.27481738 -0.20204547 0.20315729 1.3793979 0.3875014 0.056749392 0.64656955 0.5826487
atribut_Alcohol 0.39557898 -0.00021244318 0.36107332 0.13790585 -0.20637244 -0.44517785 0.09739816 -0.1914334 -0.77099746 -0.20383802 0.8821258 -0.4056395 -0.45454997 -0.4864212 0.080828644 0.093276754 -0.21933416 0.98999304 0.115377784 0.29821932 0.83285624 0.65613437 0.9679769 -0.3275874 0.18993752 -0.16670859 0.2523148 1.3695894 0.33996555 0.050708573 0.629865 0.6067918
atribut_divey 0.2031994 -0.07628027 0.28953877 0.13716118 -0.09259674 -0.5165324 0.04739728 -0.30112 -0.7814694 -0.3564001 0.91487986 -0.35059172 -0.46730754 -0.40295458 0.12304309 0.11012828 -0.1559216 0.9751692 0.03337339 0.35364172 0.7037614 0.6842851 0.87551796 -0.39008713 0.13654569 -0.1146384 0.24508756 1.4270446 0.42143714 -0.017607912 0.6636074 0.576444
atribut_Noise Level 0.2702276 -0.2277855 0.3382822 0.120191425 -0.074838035 -0.4462324 0.04368747 -0.22308625 -0.82353234 -0.39010298 0.92078674 -0.43767703 -0.5126892 -0.5143335 0.20851421 0.10818258 -0.15309797 0.8426553 -0.114854194 0.3065935 0.6193739 0.68446726 0.76705843 -0.2877117 0.16989926 -0.13512756 0.15239303 1.3962966 0.38145497 0.05453289 0.86870635 0.4453738
atribut_trendy 0.3285966 -0.05583365 0.31836665 0.17879225 -0.1252218 -0.46880648 0.0682968 -0.17166229 -0.7178581 -0.35873997 0.89794767 -0.459376 -0.45506945 -0.44119924 0.08137805 0.07610143 -0.21429713 1.0214294 0.031113962 0.32862088 0.75674504 0.649215 0.9362716 -0.40010813 0.19649757 -0.12790881 0.27993312 1.4753522 0.34883395 -0.019077925 0.69404066 0.58246267
atribut_Good For Groups 0.38188833 0.0012981778 0.32161963 0.12984498 -0.21610242 -0.41555288 0.112856664 -0.19935317 -0.7018256 -0.25857842 0.90039146 -0.40789267 -0.43680727 -0.4845483 0.098528594 0.15008211 -0.24218716 0.9947815 0.054258283 0.32412702 0.76986575 0.6830196 0.8676047 -0.40879595 0.24791777 -0.1892282 0.19951409 1.4221985 0.35534254 0.06386237 0.6302271 0.67186654
atribut_dessert 0.3033134 -0.14980452 0.3796622 0.11517266 -0.17183734 -0.488418 0.0730443 -0.124293074 -0.8237609 -0.34297022 0.88891435 -0.37057626 -0.5253799 -0.42747346 0.13853295 0.09512434 -0.27293 1.0233848 0.17764065 0.30525085 0.8304492 0.6995068 0.8475093 -0.33786878 0.24880426 -0.20500387 0.29721582 1.4381455 0.3366512 -0.044720445 0.65785515 0.65516067
atribut_hipster 0.2171681 -0.122571215 0.33820388 0.10834879 -0.18929592 -0.41593155 0.031505644 -0.2434747 -0.6734686 -0.3078424 0.9223372 -0.37470648 -0.4421098 -0.48076975 0.22394383 0.034390844 -0.22995783 0.9683007 0.09253492 0.2868213 0.7830035 0.70675725 0.8939211 -0.37578425 0.13329354 -0.09769547 0.21601194 1.5206137 0.37399128 0.02179122 0.6628583 0.59174323
atribut_intimate 0.24842085 -0.16704991 0.3504974 0.14523526 -0.12087077 -0.44288138 0.09884856 -0.14367828 -0.8114003 -0.2990511 0.9146953 -0.40923464 -0.3595556 -0.4143621 0.21200427 0.13825485 -0.1412733 0.9514721 0.082313016 0.2838682 0.7063352 0.6032268 0.8190546 -0.4692281 0.08376429 -0.22189035 0.22641513 1.510964 0.4169287 -0.008308781 0.7219961 0.6419427
atribut_Waiter Service 0.3305615 -0.13726316 0.37699947 0.13093679 -0.14958948 -0.45888475 0.12988506 -0.19889578 -0.8167209 -0.29780772 0.8927603 -0.35617176 -0.4781778 -0.49836946 0.16996622 0.023390882 -0.19922692 0.96746147 0.16149692 0.32932115 0.7498751 0.60650593 0.85191345 -0.35598645 0.2663506 -0.14903794 0.24585629 1.3952466 0.3883131 0.0048655644 0.64595306 0.60825676
atribut_upscale 0.32563123 -0.12586306 0.35067108 0.10914796 -0.17282201 -0.4559782 0.059387963 -0.17370005 -0.78791064 -0.3003288 0.8760297 -0.39021644 -0.41277438 -0.39232314 0.13182193 0.07984604 -0.14106786 0.94144434 -0.03533825 0.33318204 0.7513988 0.65007424 0.92531854 -0.42514634 0.21317832 -0.1557254 0.1929015 1.4787135 0.42127657 0.06816356 0.7515501 0.574922
biznis_SsTxjxo8qvqBMvan1rzNzg 0.6575263 -0.9678804 0.3558388 -1.4595484 0.24292386 0.07755515 -0.31201428 -0.1730987 -0.32996288 0.062340315 0.02286273 -0.05813218 0.4287991 -0.5735339 0.4909179 0.40581223 0.013159954 0.6575089 0.7593896 0.47683242 0.72086793 0.15258864 0.9360449 -0.18649556 -0.073748775 -0.43210962 -1.71569 0.5494864 1.4747066 -0.70426357 -0.26902 0.6092865
biznis_4UVhuOLaMm2-34SrW8y-ag 0.46537706 -0.52409536 -0.03894795 -0.7628236 -0.0060360297 0.42448497 -0.29309255 0.6453228 -0.91048807 -0.81480086 1.023495 -1.107303 0.4393807 0.071738675 0.2717293 0.25153247 -1.2036 0.22662681 0.15946007 0.5941958 1.4786925 0.87334704 -0.70347744 -0.72522056 0.3617841 0.3201973 -1.1000385 0.25771153 0.12188182 0.31677967 0.02135031 -0.23646574
biznis_MuIXnv7Oq7X3-4aEsp9dDA 0.1362894 -0.3276736 0.9097531 -0.8480953 -0.018411556 -0.28987744 -0.72267765 -0.22785781 0.5916766 0.33787456 -0.74369806 -0.35011822 -0.056127474 -0.53035843 0.83727443 0.3506898 0.0016556893 0.2619334 0.55772835 0.6186046 0.46668684 0.81720275 1.8494676 -0.83348095 0.121453546 0.6170952 -0.4069467 1.1366583 0.53023016 -0.40629625 0.24054682 0.57143587
uporabnik_9FDMUyJStI86B07bKQleow -0.8282565 -1.2881838 -0.71465605 0.66007304 -0.15135238 0.59916663 0.316867 0.38272804 -0.4278806 1.4364765 0.30280936 -0.2740626 -0.107109495 0.3766099 -0.89693326 1.3484759 -0.8976892 1.5380754 -0.77810663 1.0063133 -0.3964501 1.349615 0.41502854 -1.1413807 -0.82276976 -0.5250437 -0.58831936 -0.67449665 -0.10524561 0.5747035 -0.63841313 -0.6046986
atribut_Delivery 0.32784015 -0.17310473 0.33466154 0.15396194 -0.25417987 -0.4188574 0.10832319 -0.19371271 -0.825269 -0.3062469 0.91100365 -0.37869626 -0.5437912 -0.46031973 0.146714 0.04810869 -0.28031614 0.98858523 0.14793627 0.2555887 0.8310673 0.63488996 0.86316323 -0.37562582 0.25194794 -0.07707456 0.2751506 1.3822966 0.352108 0.05579994 0.6024002 0.59027696
atribut_Attire 0.3733415 -0.021262152 0.3522565 0.092624955 -0.14055529 -0.43418664 0.10157042 -0.13772935 -0.7132159 -0.29718888 0.8927665 -0.42300472 -0.48261833 -0.4229982 0.0069078286 0.051149108 -0.28384373 0.9807512 0.10509574 0.3461346 0.7012561 0.5222552 0.8207749 -0.28644645 0.32212996 -0.11607665 0.18089177 1.3437526 0.3109646 0.0007595827 0.65643054 0.54271823
atribut_vrednost_divey_false 0.3220283 -0.113349505 0.3394591 0.10473852 -0.12236867 -0.46963307 0.111609094 -0.20404276 -0.81415427 -0.33598745 0.91822344 -0.37567338 -0.38691396 -0.4802868 0.104979575 0.0930535 -0.22026476 0.95168453 0.048973177 0.2879366 0.80894023 0.66993517 0.87031066 -0.38294378 0.17489335 -0.20883504 0.22339123 1.4484305 0.45341673 0.011079558 0.6615316 0.6249354
atribut_dinner 0.38242468 -0.065988235 0.32454744 0.13121335 -0.20516057 -0.46414322 0.11610608 -0.12636168 -0.7218538 -0.33901656 0.9407864 -0.4310278 -0.51868856 -0.5162869 0.103857026 0.116485305 -0.25725716 0.9828519 0.12328755 0.30997413 0.7766408 0.555452 0.8602378 -0.30946743 0.2842979 -0.11486482 0.15266193 1.3250506 0.34878442 -0.030807614 0.6253045 0.60439914
atribut_Take-out 0.35574484 -0.14250092 0.307921 0.118984185 -0.1828771 -0.45396185 0.12239532 -0.19744341 -0.77633893 -0.3513135 0.97751194 -0.33903077 -0.4620027 -0.49363235 0.08976963 0.06744025 -0.16330265 0.9364704 0.076078124 0.3149959 0.7494913 0.5992757 0.84636074 -0.340221 0.17827313 -0.10323693 0.16319151 1.3549213 0.3919011 0.040267985 0.65126276 0.5547995
biznis_YNQgak-ZLtYJQxlDwN-qIg 0.250001 -0.3088294 0.29418042 -0.13976476 0.28311896 0.5350589 0.72490793 0.72407 -1.1249868 -1.5501455 0.06913456 0.5346262 -0.2995446 0.086367406 -0.59463465 0.32842588 0.25504604 -0.6154176 0.3803662 0.41875267 1.5373147 1.4411613 0.46787933 -0.9059899 0.33145612 0.32706597 -0.43553087 0.41271815 -0.13756955 0.030341014 -0.5082737 1.0385008
atribut_lunch 0.35830316 -0.09375113 0.34659377 0.13870822 -0.19620395 -0.4500227 0.1159177 -0.17952189 -0.7607657 -0.32558042 0.9080802 -0.372278 -0.46234974 -0.4802834 0.116695374 0.13361003 -0.30614164 0.9991979 0.12878616 0.3043531 0.79214096 0.6193922 0.843944 -0.3132312 0.29484633 -0.18987058 0.18002194 1.3371546 0.36000293 0.07072861 0.61194295 0.6451331
atribut_romantic 0.2757104 -0.12896381 0.32843956 0.07527702 -0.12949339 -0.37260705 0.06429334 -0.23242226 -0.74473643 -0.3265308 0.90099466 -0.39639407 -0.3915885 -0.42722833 0.12465301 0.09351748 -0.20578378 1.0426242 0.09965527 0.3194905 0.76059693 0.6419874 0.8946049 -0.43238673 0.17620541 -0.16148895 0.22784394 1.4749541 0.33491126 -0.013147849 0.6052155 0.65356594
atribut_casual 0.24965316 -0.093798205 0.35075647 0.113430135 -0.092155986 -0.4321482 0.08928707 -0.22227387 -0.70505714 -0.36741167 0.93799067 -0.41033757 -0.41240937 -0.45640966 0.0964616 0.09492899 -0.2501528 0.9501998 -0.012492065 0.2689467 0.7837831 0.6548251 0.88929194 -0.42263317 0.19079503 -0.12690304 0.21119449 1.4486761 0.40812942 -0.0004345892 0.6665668 0.62728465
atribut_Takes Reservations 0.3133669 -0.10543789 0.35130012 0.15095389 -0.16213979 -0.47046924 0.1289196 -0.17749637 -0.7819056 -0.34152853 0.89551485 -0.3785594 -0.50088453 -0.45973593 0.11302676 0.07774423 -0.22682051 0.9250705 0.08539893 0.27156952 0.7333993 0.62203115 0.8479784 -0.32571205 0.262855 -0.16316669 0.14618123 1.4128689 0.3747229 0.074958935 0.654942 0.551195
uporabnik_KJDymAcoPiW_vuqthGxfpQ -0.45139667 -0.521201 -0.037223052 0.26907992 0.55668974 0.21261051 -0.003389455 1.248393 -0.73490644 0.65787214 -1.1930094 0.00065042614 0.47016868 -0.25847062 -0.30894667 -0.98464704 -1.0141115 0.7052865 -0.5568804 0.9555163 -0.13068305 1.422725 1.0281429 0.36476424 -0.3484146 0.28991538 -0.17017952 -1.1412892 -0.498879 -0.60787785 -1.3674344 -0.1453445
atribut_classy 0.3031393 -0.086332195 0.39117265 0.14454018 -0.12943405 -0.5114103 0.08818252 -0.17269553 -0.7894373 -0.32601413 0.9189582 -0.43017927 -0.36656526 -0.45481718 0.06787859 0.066851445 -0.22384618 0.9863276 0.063361436 0.3331555 0.7305326 0.5956387 0.79847014 -0.37393576 0.21148644 -0.20917432 0.22221851 1.4311129 0.40134397 0.049975246 0.6809405 0.5859926
atribut_latenight 0.36933014 -0.11424157 0.2951793 0.1209541 -0.18087408 -0.45807356 0.084992096 -0.19141732 -0.79302216 -0.3428749 0.9664481 -0.38307557 -0.49771765 -0.5039307 0.18540202 0.07900054 -0.22215159 1.0075845 0.14643785 0.3686782 0.80532277 0.5488987 0.8478851 -0.31587574 0.22830455 -0.16093577 0.1485324 1.3658422 0.35253686 -0.03072433 0.6321886 0.53724486
atribut_vrednost_touristy_false 0.30066723 -0.10181693 0.3077605 0.14918388 -0.15261175 -0.46869412 0.03816115 -0.2501977 -0.7664479 -0.30336222 0.8686129 -0.39369202 -0.4133398 -0.5097942 0.078816615 0.091564566 -0.29542232 0.95381725 0.06858373 0.34417817 0.7313176 0.6349177 0.9301461 -0.3696433 0.26929215 -0.121337816 0.2362517 1.4467143 0.3522308 0.039196678 0.6894841 0.62917364
atribut_Has TV 0.27182338 -0.033597212 0.34025708 0.107444406 -0.16232988 -0.40090576 0.027549174 -0.18529151 -0.75882584 -0.32912737 0.9286373 -0.37695235 -0.44727212 -0.47003943 0.10687512 0.13154948 -0.30176792 0.9082981 0.01373167 0.30541268 0.739629 0.6797599 0.82460123 -0.36015913 0.15278406 -0.11444059 0.17295457 1.3945537 0.3531439 -0.035141654 0.65744305 0.56413454
atribut_brunch 0.3608913 -0.082435675 0.30579603 0.09428121 -0.18727362 -0.37226287 0.1136276 -0.17267513 -0.74681103 -0.32300565 1.0126921 -0.37367588 -0.50975126 -0.5272485 0.06594257 0.057385974 -0.22109559 0.93395483 0.12494674 0.32320118 0.85684925 0.6526476 0.8464103 -0.3230209 0.29136255 -0.13235632 0.23988321 1.3638763 0.3525174 0.014021372 0.58198774 0.56537694
biznis_M2SjLXsuAy5RNKwxaA5E1g 1.4080329 -1.4717083 0.71025103 -0.7660214 0.57089174 0.60701936 -0.09270898 0.19001682 -0.3579822 -0.10503468 0.16312864 -0.42549598 -0.14146024 -1.5650026 1.0116953 0.19422384 0.38112897 0.28807893 0.003668187 0.91574806 0.25624064 0.040389095 1.101038 0.43252093 0.53512853 0.03126572 -1.1616697 -0.024973184 1.5357922 -0.13038613 0.40779555 0.35705993
atribut_Caters 0.26129618 -0.15057614 0.35972306 0.17606127 -0.12440399 -0.44739473 0.04317565 -0.16018447 -0.8143182 -0.4057542 0.9581675 -0.35646433 -0.41247103 -0.43016756 0.14357656 0.046124656 -0.20545702 0.9672074 0.11753153 0.28629437 0.7694688 0.62086034 0.81795 -0.37645498 0.26633552 -0.1412447 0.14724244 1.4726595 0.31301785 0.023475736 0.62981695 0.5467777
atribut_vrednost_intimate_false 0.30618662 -0.11616728 0.35038364 0.12664276 -0.08497915 -0.44640595 0.096416324 -0.23628049 -0.78761256 -0.3407768 0.91328186 -0.38030475 -0.41852704 -0.47593567 0.1571687 0.0241954 -0.2787602 0.95455444 0.05015796 0.3629502 0.7528151 0.61328137 0.8743305 -0.38132352 0.23541872 -0.15332715 0.2527189 1.426212 0.37146884 0.03951605 0.63906235 0.59105724
biznis_5GKbGn9-fAgQ0njSh3OJ8A 0.73531693 -1.0980155 -0.09097358 -0.75324804 0.019334186 -0.24471368 -1.131415 0.5866666 0.19986235 0.09214502 0.015741201 -1.3289981 -0.68997735 -0.5880036 -0.1104229 -0.51040065 -0.9983721 0.13703576 0.26246247 1.5244293 0.85394186 0.54435325 1.0959289 0.41460052 0.6572362 0.27662748 -0.7038358 0.16666788 0.9106939 0.25543088 1.1549664 -0.26236627
biznis_ngNvH4sxnH9aMukTZ67R_Q 0.7942877 0.6133844 -0.022367543 0.17364219 -0.042905133 0.32685652 0.48157337 0.8828048 -1.372632 -0.62865394 0.8231373 0.27419114 0.009246787 -0.45280543 -0.4555093 0.019816553 -0.55906403 0.13360779 0.22701456 0.07557008 1.5596465 0.41220492 0.8667969 -0.28882805 0.06460265 0.33283654 -0.6037196 0.32060933 0.3155285 -0.51049715 -0.33372194 0.78770053
atribut_vrednost_Delivery_false 0.36940858 -0.10492456 0.33167818 0.12035646 -0.11887423 -0.4086283 0.1000372 -0.2254496 -0.6701902 -0.43286103 0.9488321 -0.38496682 -0.46161377 -0.5001273 0.14663635 0.07924075 -0.1987737 0.89216614 0.017785922 0.30422607 0.74546295 0.6102761 0.836208 -0.22575778 0.19807714 -0.22190768 0.0199167 1.355418 0.3807389 -0.038265903 0.6584337 0.57917726
atribut_vrednost_Good for Kids_true 0.31422457 0.1366547 1.4717209 0.18249406 -0.14144704 -0.050561156 0.47249126 0.8294009 -1.0758312 0.5355 0.45176193 -0.09493935 0.030451793 -1.178303 -0.0773524 0.48409054 -0.5950169 0.88250875 0.72495174 -0.089320056 1.1255517 -0.46989074 0.58619094 -0.22282459 0.28295723 -0.21489231 -0.7683577 0.9258955 -0.21883059 0.16783194 0.37777436 0.51022625
atribut_vrednost_hipster_false 0.37938812 -0.13676138 0.30586377 0.18687147 -0.11781976 -0.45493877 0.05954392 -0.23218425 -0.8412055 -0.39412436 0.936845 -0.38319075 -0.42376515 -0.45204613 0.0551148 0.060013395 -0.22513177 1.050489 0.0490805 0.32844225 0.71953094 0.6461275 0.8977402 -0.4107677 0.21058908 -0.15108266 0.21444821 1.4145372 0.41239274 0.018010825 0.67717624 0.6053698
biznis_aGbjLWzcrnEx2ZmMCFm3EA 1.1016173 -0.8528556 0.17525168 0.8615871 -0.37544528 0.49365106 -0.56453484 0.5629141 -0.0058242697 -0.4314131 -0.35442674 -0.605215 -0.7990926 -0.5767403 0.31661552 0.27704477 0.47314683 0.89534754 0.4674433 0.7963117 0.3578045 -0.31890306 2.0460806 -0.55848694 -0.68473625 0.53275865 -0.84341806 0.14308037 0.6053749 -0.7218908 -0.129277 -0.04147188
biznis_JokKtdXU7zXHcr20Lrk29A 0.70423025 0.8348553 0.36641464 -0.49961957 0.52378017 0.09015824 -0.7773099 0.25255218 0.1661079 0.15746433 1.0095469 -0.42057726 0.10533826 -0.79621094 0.9130796 0.12831141 -0.25170025 0.59503603 -0.006979491 0.6955508 0.5575009 0.86003524 0.8440911 0.12266209 -0.04504089 -0.16000064 -0.754949 0.6262371 -0.12599337 -0.6344873 0.07633382 -0.07244989
biznis_h6jfMpTZpNduLG0wE2tbaw -0.035603564 0.8787649 0.47676313 -0.16244896 0.47989127 -0.2588103 -0.5877861 0.7063611 -1.0574176 -0.16030781 1.6793948 -0.035816412 0.48061904 -0.45954388 -0.1576658 0.45371303 -0.71673733 0.18977492 0.1423595 -0.40807477 1.3104945 1.2749237 0.01572285 -0.2797239 0.08375347 -0.23045158 -0.7999391 -0.036707554 -0.12480361 -0.25908494 0.5055418 0.42903206
biznis_naLrErBuJr9IWd6_rv6-XQ 0.68198305 -0.5634764 0.7173474 -1.6898694 0.18541023 -0.27982476 -0.1857261 0.012242957 0.26495302 0.07223157 0.028703708 -0.7749788 0.31300604 -0.07945151 -0.10463721 -0.5304939 0.300951 0.22650638 1.0106351 1.0551088 0.892887 0.6278009 1.1208512 -0.5997008 0.08204697 0.35407034 -0.9274237 1.166615 0.31897277 -0.03348796 0.69521993 0.11884238
atribut_vrednost_dessert_false 0.45440793 -0.10841186 0.35279328 0.104836516 -0.14460027 -0.42197803 0.14414614 -0.1922358 -0.73008823 -0.31408036 1.0168136 -0.45828292 -0.4729509 -0.51668024 0.13684934 0.14345425 -0.21345666 0.9389253 0.11353773 0.2906315 0.8186998 0.626797 0.7797927 -0.2864501 0.19445941 -0.07074114 0.12563801 1.2826266 0.463208 0.055306774 0.588409 0.5572711
atribut_vrednost_Good For Groups_true 0.35779655 -0.17616537 0.30299956 0.10443603 -0.17579281 -0.43701583 0.08524186 -0.18959598 -0.763916 -0.4358265 0.84412616 -0.38430023 -0.39766535 -0.47799057 0.11775749 0.06423194 -0.27350864 0.99360883 0.07583839 0.37801087 0.8142166 0.6078092 0.8575587 -0.29865828 0.21377155 -0.110910185 0.21053365 1.3396534 0.38180393 -0.018305097 0.63288295 0.5873962
biznis_atribut_review_count_2.0 1.0036224 -0.9100094 1.3651346 0.6322352 -0.9240722 1.0929223 1.031896 -0.7276593 -1.8067328 0.6471467 0.8739745 2.819573 0.5178007 0.63612306 -0.2741958 -0.89065754 -1.0912765 -1.1314394 0.72781336 1.3507382 -0.019022057 1.5671364 0.9032306 0.5895402 0.5679607 1.0975103 -1.860682 -0.25814375 -1.1362517 -0.630461 0.6037563 1.4049283
atribut_vrednost_romantic_false 0.24667138 -0.051583447 0.3335039 0.1737145 -0.13823585 -0.45798153 0.096363686 -0.15825795 -0.80309165 -0.2585752 0.9572339 -0.3772732 -0.40330988 -0.5466345 0.11425254 0.045381483 -0.27394462 0.95784 0.101099305 0.34924325 0.7886395 0.6023345 0.8429338 -0.34933293 0.20444366 -0.21501592 0.18643437 1.4046183 0.3982158 0.14807552 0.6488035 0.5252811
biznis_2ceeU8e3nZjaPfGmLwh4kg 0.56530005 -0.049701393 0.58492875 -0.7143416 0.77067846 0.442019 -0.81975824 -0.09676972 -0.037111424 -0.29012695 0.8499885 -0.36427745 0.49185982 -0.44736323 1.4794799 0.5867618 -0.6492164 1.1172196 0.49914747 0.31201583 0.61700195 0.98161095 0.6087605 -0.124341294 -0.6939421 -0.008492701 -1.0550913 0.41833785 -0.12706287 -0.50492316 -0.16896036 0.48480538
biznis_Fh6OndE60vzvyhCX1Wg7Aw -0.023445306 0.3279625 0.0673981 0.34185645 0.056836374 -0.6345487 -1.2929622 0.029449029 -0.44273517 -0.4259311 0.1138172 0.39562118 -1.3069934 0.27735826 -0.19705373 0.7805899 -0.16841012 0.57213074 -0.25223675 0.64212036 0.40633142 0.8729425 2.0396287 -0.7433169 0.30764082 0.5694616 -0.84471744 -0.19289549 0.09438338 -0.30334178 0.1730146 0.14404087
biznis_tqu42L0qXzkvYKSruOz0IA 0.31755835 -0.55451024 -0.03393555 -1.4438753 0.9772957 -0.288128 -0.18773511 -0.5647446 -0.8138235 0.16993445 0.5889788 -0.16307305 0.38597196 -0.25454643 0.38666022 0.112781845 -0.9758897 0.23596625 0.7789394 0.36316994 1.1717789 1.0556923 0.56986076 -0.12173192 0.39831138 -0.618096 -0.7088534 0.23339939 0.21295957 0.26543888 0.22209235 0.38049185
biznis_mDdqifuTrfXAOfxiLMGu5Q -0.14499281 -0.84596235 -0.0821887 -0.1681265 -0.01569343 -0.01588604 -0.4518334 -0.58151305 -0.42169514 -0.6597705 -0.6923042 -1.2278006 -0.36361587 0.4444575 -1.1941481 -0.19387351 0.44389328 -0.2579258 1.3437707 0.98541975 1.0049464 0.7988216 1.453742 -0.7328991 -0.41482538 0.7574869 -0.85705143 0.90787166 0.40411732 -0.320351 0.3551907 0.25511003
atribut_vrednost_upscale_false 0.29467174 -0.15231596 0.34870026 0.16305983 -0.08543242 -0.39686465 0.070224 -0.14503758 -0.76658887 -0.3097472 0.94453406 -0.27023387 -0.42002872 -0.53342324 0.1935283 0.19909565 -0.32514718 1.0283179 0.046886533 0.31750092 0.82516825 0.58808273 0.87269294 -0.3678371 0.23890378 -0.16040449 0.25459084 1.4683423 0.42151454 -0.07240202 0.59164613 0.6100615
biznis_nZgYNbl1XlZyyKlISMoG6w -0.2818312 -0.83852977 0.21292393 -0.89948195 0.14118472 -0.3825655 -0.72275364 -0.0954892 -0.19868551 0.007779771 -0.63828164 -0.7254146 0.09544494 0.07843508 0.59544134 -0.017950684 -0.24838686 0.76012975 1.6807661 1.0833696 1.0499084 0.2252143 1.0504307 0.056214884 -0.47343785 0.33348766 -1.0624595 0.8996635 0.4948312 -0.62651116 0.3298203 0.5350592
biznis_-sC66z4SO3tR7nFCjfQwuQ -0.40698677 -0.72779715 0.5821289 0.033945728 0.34984896 -0.10291211 -0.54409665 0.093852036 0.16088027 -0.5412324 0.012540241 -0.33672664 0.61679864 -0.9111804 1.1824825 0.1791263 -0.46773615 -0.11060975 0.088270925 0.26329133 1.1211381 0.7649399 1.191446 0.5341509 0.0053263362 1.30539 -0.7268598 0.35010052 0.7010212 0.6776997 0.6181544 0.7333393
biznis_xyTJYlbE_MLouK6rCou6zg 0.85335815 0.75243396 0.29165906 0.5142498 0.28808227 0.18080644 -0.22615592 0.93620753 -0.56004006 -1.0377455 1.2957191 -0.37928903 0.28435275 -0.4064736 -0.30316064 0.24953832 -0.10488671 0.4975164 0.07332392 0.9795238 0.5434976 0.27970126 0.38703698 -1.3526652 0.3703981 -0.13034075 -1.1587391 0.28466186 0.48218188 -0.48369026 -0.63442844 0.09106777
biznis_WhBxWYRj6rycigYqdXY9cA 0.9467385 -0.036491144 0.79383713 -0.75011533 0.72695625 0.23880824 -0.06057537 0.4498899 -0.68698347 0.016442351 0.9537012 -0.42556044 0.5470621 -0.61322886 1.5238599 0.31156522 -0.5406135 1.0603336 0.311332 0.6422698 0.6574788 0.20016962 0.38408566 -0.23452729 -0.1772416 0.09082651 -1.0484447 0.23328641 0.27698514 0.04748717 0.27891424 0.23402691
biznis_5FLRsYrT6w2VSDvQDhphXg 0.8759869 -0.54930604 0.5014581 -1.8612026 0.9796955 -0.22011396 0.08699102 -0.37721235 0.2666251 -0.36951837 0.2059327 -0.45988235 0.1907176 -0.38989487 0.07820069 -0.004043177 0.0026906906 0.2522073 0.4954291 0.5480561 1.2167964 0.81970567 1.1927353 0.15222624 0.3712988 0.2521549 -0.77753425 0.90735394 0.0022379209 -0.47408697 0.6460427 0.6597498
atribut_vrednost_latenight_false 0.34877253 -0.11435078 0.38146815 0.18753992 -0.17145348 -0.4148886 0.17554615 -0.18770267 -0.7091326 -0.33355615 0.9899284 -0.3810097 -0.42459983 -0.50458694 0.16485798 0.18738073 -0.22042115 0.86222255 0.16900246 0.2191563 0.7882837 0.58590746 0.9165963 -0.41639066 0.20824905 -0.080205895 0.22658071 1.443665 0.3077287 -0.029696304 0.6531049 0.65746915
biznis_VVeogjZya58oiTxK7qUjAQ 1.3774534 0.84230673 0.19770715 -0.008025251 0.6144771 0.53992236 0.53487086 -0.22738248 -0.24910809 0.02134308 0.66317147 -0.174225 -0.13002586 -0.8054184 0.38351184 0.6294992 0.2606221 0.42298785 -0.32093662 0.24288952 0.6649173 1.21494 1.1543589 -0.065528475 -0.23914851 0.77020836 -0.5278851 -0.030703515 0.38424167 0.33753926 -0.19808717 0.5254813
biznis_jOuERtVf7QePnK9ZcdH5XA 0.5073672 -1.1682825 -0.070250496 -0.42814162 0.3083 0.3672221 0.08706056 0.4812276 -0.957111 -0.9637485 -0.08381617 -0.60853374 0.77137595 -0.31766218 -0.22042459 0.20940265 -0.122381 0.36123112 0.94452345 0.90002763 1.0840521 -0.346383 0.3298825 -0.42087558 -0.008725992 -0.40714893 -1.7998985 0.69480664 1.3547353 -0.5987226 -0.5395245 0.8445788
biznis_Gn7bMxhZgY0bivsthvJWJQ 0.45521104 -0.6649763 0.5952141 -0.11977041 0.60036343 0.76649034 0.750892 -0.7587327 -1.0742934 -0.5928976 0.040223774 -0.49771827 -0.18573159 -0.8209836 -0.40080798 1.0292265 1.4548216 -0.39035833 0.2289483 1.008524 0.93451536 0.8535959 0.89227355 -0.8218397 0.24284643 0.34484538 -0.88582325 0.06408898 1.7613754 -0.15113369 -0.6438067 0.9088778
atribut_vrednost_brunch_false 0.47117215 -0.17742287 0.3621041 0.13102172 -0.18225597 -0.55451953 0.009244701 -0.15607946 -0.8321691 -0.32635504 0.965159 -0.41890758 -0.42583564 -0.46307245 0.26639774 0.20345044 -0.22069103 0.9571479 0.058392674 0.29489252 0.68686247 0.52409655 0.7966925 -0.30592287 0.21460356 -0.1812663 0.08261516 1.3736218 0.4092951 -0.083098754 0.5959341 0.4729114
biznis_K8pM6qQdYu5h6buRE1-_sw -0.30422738 0.38556567 0.5113264 -0.3472454 0.108160526 0.18905139 -0.12553029 0.57682765 -1.2962114 -0.43873683 0.00445017 0.029353859 -0.107892156 0.4423511 0.5368257 0.749798 -1.1750009 0.14632727 0.8140447 0.166107 1.3038666 1.3723737 -0.22050859 -1.2002634 0.19990584 0.27662975 -0.9259551 0.654268 -0.4292206 0.21193275 -0.6159332 0.6882813
biznis_iXA8Y2bzvZo8MjALfZxrIg 1.0752411 -0.4966643 0.8869266 0.05802493 0.95047563 0.2487003 -0.42301962 0.35944858 -0.06736299 -0.17099608 0.2831136 -0.85748494 0.60682833 -0.94678426 1.0659612 0.61109877 0.05275453 1.1563406 -0.1758636 0.6261224 0.23938645 -0.22438844 1.256826 -0.3450897 -0.415612 -0.20315714 -1.0177648 0.039205905 0.6546587 -0.3379883 0.36189324 0.42716077
atribut_vrednost_breakfast_false 0.46461177 0.006711821 0.32418835 0.1029154 -0.20336784 -0.59044635 0.053767588 -0.1283538 -0.71132207 -0.3913891 0.9924566 -0.36442462 -0.5260203 -0.44157732 0.15912795 0.09876188 -0.27175888 0.9603792 0.048928287 0.31050864 0.6840209 0.7395496 0.8661149 -0.35884017 0.039578795 -0.068891354 0.26859698 1.3436946 0.35074767 -0.07663552 0.586717 0.5943845
biznis_PmPOuRvuN3CoNOi1nBj_TQ 0.0044173803 0.109483 0.40658352 0.1729036 0.20108527 0.32307902 -0.32853934 1.3016903 -1.2657969 -1.2574725 1.0957576 0.21343236 0.568204 0.039646983 -0.0096357595 0.06844492 -0.29939896 0.3899201 0.8610927 0.22186776 1.4725708 0.5669193 0.4189539 -0.11205238 -0.35648414 0.37935203 -0.71733505 0.43187165 -0.20076062 -0.7583276 0.11679953 0.8795608
biznis_tn5SXZvWiT-uVsjXLGSrww 0.8505031 0.38758087 -0.25684142 -0.86559594 0.5278128 0.053745914 0.83654994 -0.7198513 -0.6535811 0.11979122 0.579485 -0.6004905 -0.38517728 0.16283974 -0.83020043 0.7794871 0.032814894 -0.16428418 0.37173644 0.34072068 1.3881273 0.7891803 1.1982872 -0.89822 0.20075187 -0.03460029 -1.1749809 0.2532558 0.62687445 0.13121068 -0.070591025 0.5117568
biznis_Pz7SWZQhxL6ZbhL9jE2NTA 1.1202389 -0.7972036 0.46139327 -1.1722585 0.37987363 0.13064384 -0.5253784 0.33264318 0.23139125 0.028975394 0.2750444 -2.0434473 0.2855027 -0.04983539 0.11609764 0.17131583 -0.3242065 0.5553597 0.12910065 1.0240968 0.65040064 0.5048648 0.593138 -0.6071557 -0.41993308 -0.22073211 -1.1675116 0.4220235 0.59831923 0.31924453 0.86152077 -0.059240002
atribut_vrednost_classy_false 0.18156147 0.044365708 0.21126935 0.24340177 -0.22090124 -0.4136587 0.055644486 -0.24453677 -0.82148045 -0.20552559 0.9275966 -0.34823364 -0.442966 -0.46631253 0.09666045 0.1273842 -0.34285426 1.0204554 0.10384003 0.3910575 0.808131 0.6247385 0.9055108 -0.25048387 0.1405202 -0.12962447 0.09476344 1.5628064 0.46353707 0.13261878 0.65443164 0.473673
biznis_sIyHTizqAiGu12XMLX3N3g -0.056600146 0.12768805 -0.05783896 1.256999 0.16243285 0.11426725 0.5836905 0.17607318 -1.3561034 -1.6516263 -0.1994585 -0.3235387 -0.16113916 -0.24275541 -1.3176767 0.3734279 0.18135417 -0.6994715 0.29496282 1.0729545 1.6852115 0.98316336 1.5527433 -0.40666187 0.29265314 0.88763684 -0.44797173 0.18074185 0.42752582 0.6823473 -0.13706672 0.9810936
biznis_WS1z1OAR0tRl4FsjdTGUFQ 0.29005295 -0.25724047 0.0110917175 0.20423791 0.6270355 -0.43127298 -1.0525801 0.7614787 0.13554962 0.23672271 0.85667527 -1.152888 0.3793007 -0.46967354 0.8077175 -0.022241376 -0.93889576 1.0231754 0.76736367 1.3297725 0.58494073 -0.19172354 1.0229728 -0.3691596 -0.19631572 0.19962482 -0.75605863 0.12982085 0.42371383 0.304206 0.690831 0.21036427
biznis_ASOiJ8MmbBTgK2D1_MQrqg 0.43707505 -0.10095177 -0.51625437 -0.28029713 0.11708603 0.72720486 -0.41261426 0.44386932 -0.38344726 -0.95812726 0.45044398 -1.4895388 0.024876237 0.41127118 -0.645893 0.0020033147 -0.22067009 -0.082532674 0.9486762 0.96275455 1.202397 0.7934791 0.5970382 -0.77600724 -0.23413542 0.03678795 -0.62055993 1.1740998 -0.3019288 -0.88139373 -0.1815469 0.5676827
biznis_O-Xa9GCFWI65YiBD5Jw_hA 0.5531662 0.28654045 -0.314716 -0.37917012 0.61558205 0.02022344 -0.7577537 0.10305149 -0.23763153 -0.38046262 0.7001033 -1.3003093 -0.12927085 -0.24878818 -0.48244038 0.33565912 0.5447158 -0.12717563 0.5184452 1.7257394 0.3696249 1.0145521 0.5354597 -0.25657946 0.5407194 -0.653268 -0.57812554 0.7957491 -0.024538234 -0.57564723 0.028831769 -0.16623639
atribut_vrednost_Attire_casual 0.20828818 0.05484327 0.4058331 0.26367828 -0.07140221 -0.4733339 0.14050716 0.00038597328 -0.73182255 -0.23346756 0.90537333 -0.18111873 -0.32521385 -0.6805181 0.06918664 0.19288003 -0.40681484 1.1727989 0.085391335 0.35318676 0.9014707 0.49600306 0.8702346 -0.23336124 0.30793408 -0.06505767 0.21461554 1.4278079 0.44191945 0.087986074 0.55607784 0.5132508
atribut_vrednost_Noise Level_average 0.17875987 -0.12016863 0.2298267 0.11681932 -0.0964937 -0.49840525 0.0526015 -0.20232724 -0.82814866 -0.35318372 1.062851 -0.25152537 -0.3562008 -0.45652527 0.059751462 0.06253799 -0.27948576 0.9904486 0.23972647 0.3464288 0.6564125 0.5758812 0.868015 -0.55296814 0.32679453 -0.08009819 0.17477351 1.436379 0.43220872 0.057898138 0.6585933 0.6837364
biznis_8buIr1zBCO7OEcAQSZko7w 0.3021869 0.29270172 0.57818854 -0.10892328 1.0372736 0.16005412 -0.26465163 -0.35872176 0.622233 -0.3696408 1.0356807 -1.0844165 0.70030195 -0.64532214 0.55652094 0.9199311 -0.51013595 0.0061157956 0.0036159218 -0.23663351 1.5846404 1.468014 0.3192187 -0.31007078 -0.17782173 -0.033063795 -0.7057356 0.2187959 -0.370773 0.05104879 -0.14776914 0.3222517
biznis__FXql6eVhbM923RdCi94SA -0.2857146 0.028748732 0.48663595 0.23704186 -0.015493976 -0.6191638 -1.6654274 1.3580246 -0.074551634 -1.0307364 0.44835562 0.14809407 -0.110494204 0.34197608 0.2491439 -0.02202262 -0.7456793 0.9247393 0.60479784 0.48406303 0.67366475 0.9846773 1.0469632 -0.7736967 -0.73021704 0.75802124 -0.65422827 0.12686567 -0.54312336 -0.34224293 0.6121547 0.6176223
biznis_aRkYtXfmEKYG-eTDf_qUsw -0.2682185 -1.3906081 0.6296941 -0.38275272 0.21048099 -0.09532009 -0.8062737 -0.41357803 -0.3649014 0.3213501 -0.6440015 -0.09299805 -0.21720557 -0.27381158 0.78188974 0.2776741 -0.40120563 0.045707945 0.8141087 -0.1928355 1.3046134 0.94277436 1.4104193 0.39117372 -0.19158943 -0.24439275 -0.7465931 0.36760893 0.042913638 0.16823296 0.68855983 0.32333845
biznis_atribut_review_count_3.0 -1.0633084 -0.1673928 1.538723 0.4518251 0.58730954 -1.4450048 -0.82055175 0.4686069 -0.8951041 1.3544097 0.41812018 -1.1620471 0.739839 -1.1760864 -0.65455633 1.188955 -0.7539649 0.96927834 1.4583278 1.3741921 0.8286924 -0.5340736 0.9743505 -0.49756882 1.051738 -0.29065427 0.3831013 -1.1134244 -0.0022287704 -0.8602548 1.969217 0.36980605
biznis_J4qLz0nGzCTMf6-kf_SiQg 0.6600101 -0.28013235 0.22433093 -0.161581 0.16905497 0.59171075 0.28856575 -0.021944577 -1.5003183 -0.3167235 -0.7416029 -0.7410019 -0.90569437 -0.633891 -0.062361937 0.51291937 0.3093877 -0.40691563 -0.063860185 0.9397408 1.1838632 0.059014622 1.2377038 -0.35026032 0.36329246 0.046475995 -0.856645 1.0418863 0.5339468 -0.77831125 -0.946136 0.34338832
biznis_BqrTtox0JbG-P_DKBB5bBw 0.4856176 -0.74807 -0.025717942 1.4509212 -0.19021964 0.33429745 -0.53702617 0.668577 -0.97597086 -0.13898894 0.47924328 -0.9346859 -0.03032936 -0.49122226 0.37009317 0.24983205 -0.25172582 0.9046693 1.2234812 1.0080049 0.44160298 -0.48111144 1.365758 -0.7244601 -0.46001458 0.29867724 -0.7957369 -0.4637933 1.2155575 0.25292918 0.089755915 0.34302098
biznis_KjymOs12Mpy0Kd54b7T9MA 1.0623468 -0.26277113 -0.006722789 -0.08476425 0.78089887 0.43028995 0.20724398 -0.29231298 -0.19860287 -0.84757346 0.70929986 -0.7081497 0.64848226 -0.52594286 -0.6055223 0.56416184 0.8275467 0.5315882 0.7213574 0.55322117 0.59830064 0.33064246 1.2194664 -0.82640386 -0.15764906 -0.25122565 -0.52936375 0.1851013 0.49650192 -1.1989464 -0.35313922 0.7428608
biznis_PXviRcHR1mqdH4vRc2LEAQ 0.81303036 -0.6972885 0.53371644 0.8385222 -0.5652986 0.5469971 -1.3281094 1.2145067 -0.36852515 -0.50121707 1.0098373 -0.03230625 -0.39545536 -1.0769749 0.8601395 -0.079229295 -0.011595325 0.67082703 0.33314994 0.83833337 0.07775466 0.3522525 1.1709474 -0.4080522 -0.15210825 0.70346403 -0.84471333 -0.6129264 0.79083365 0.033890437 0.22459878 -0.12939352
biznis_xY1sPHTA2RGVFlh5tZhs9g 1.0206153 -0.6056127 0.6773302 -0.5125848 0.7796233 0.16268799 -0.6397938 0.38527647 -0.078053616 -0.27734524 0.25556546 -0.25572646 0.13788518 -0.9496434 0.6816478 -0.09369083 0.36820674 0.99713826 0.3272173 1.0514853 0.21768172 0.2316516 1.6737741 0.3391125 -0.5054421 0.45784357 -0.6402501 0.11067172 0.5198716 -0.4508279 0.7586297 0.47715828
biznis_NsnZ5GhagXBKrCOelxVQxw 0.18453191 0.28182304 -0.17029007 -0.8438898 0.5902429 -1.0668983 -0.78661954 -0.3677915 0.77746403 0.21176307 0.33415258 -1.2272611 -0.057932988 -0.08912051 0.049875595 0.3691699 -0.89874655 0.6139136 0.60354704 0.6051923 1.4084445 0.4779361 1.0202731 -0.45402342 -0.21007656 0.0019571516 -1.1168464 0.5396426 -0.056870524 -0.46240643 0.2525176 -0.040826254
atribut_vrednost_trendy_false 0.27137566 -0.16483884 0.47618365 0.118864834 -0.11003945 -0.37104204 0.027489819 -0.20436677 -1.0124016 -0.27795923 0.93032295 -0.31780505 -0.30439758 -0.5308206 0.1329864 0.050556812 -0.120273605 0.94749534 0.02207592 0.16119376 0.6342415 0.574468 0.7714347 -0.5047557 0.18492511 -0.16223265 0.026355598 1.5162177 0.2592931 0.09296664 0.6396981 0.54349995
biznis_M-vOSYnyuaE2TsFJF0uMbQ 0.91134524 -0.03502195 0.40712824 0.16225292 0.63464886 0.63276356 -0.10492783 0.95680666 -0.5310393 -1.4141436 1.6765344 -0.03359566 0.74351317 -0.7154614 0.4173275 0.15270106 -0.42395392 0.46677953 0.14485209 0.5018366 1.1716518 0.5815259 0.13567315 -0.23343559 0.15806161 0.39397472 -1.1440314 0.17004932 -0.31738678 0.11250254 -0.13174377 0.24340408
biznis_JauLZ0TL3D3VIGtSnStzhA 0.66780984 0.15669478 0.493141 -0.44705272 0.94030136 -0.53585595 -0.30809554 0.1347234 0.2551816 0.020359032 0.46117368 -1.0733017 0.52765274 -0.42034054 0.47987285 0.21211411 -0.06038772 1.2727953 0.71433145 0.91544586 0.7718899 -0.25008836 1.074566 -0.2519258 -0.8288306 0.09366201 -1.2144608 0.44835195 -0.011447335 -0.543697 0.7860918 0.016694754
biznis_H_SuH7uLiYahDMbNBB9kog -0.2797569 0.3129268 0.54731053 1.4877975 -0.271841 -0.034393333 -0.840923 0.27738163 -1.3174492 -0.21641025 0.561428 -0.33629853 -0.5773369 -0.41487908 0.44594267 0.5139076 0.11058755 0.4081904 0.74733657 0.5476587 0.38848904 0.69215435 1.0904489 -1.0140992 -0.7232783 0.7336892 -0.58739763 -0.4800118 -0.17071769 0.4231929 -0.041587595 -0.21869023
biznis_VbI_ryrGPdNRaDrYRJGMiA 0.15398765 -0.73452014 0.5372801 0.93269795 -0.5416563 0.40717784 -1.5270823 0.74379444 -1.3319305 -0.5193805 0.090444244 -0.09811229 -0.94982034 -0.56186455 -0.13450155 0.16133367 0.5249181 0.1251664 0.21078509 0.8643627 0.32632875 0.82964164 2.034645 -0.25216636 0.49517363 0.7947712 0.23622003 -0.34641585 -0.007014463 -0.09355492 0.26438108 0.06575521
biznis_QbmcCE_cLq4WO8ZMKImaLw -0.12004006 -1.3352807 -0.2295979 0.10746267 -0.6907089 0.11920305 -0.19025536 0.7228589 -1.1382434 -1.0513734 -0.08419975 -0.6960367 -0.33494034 -0.0885494 -0.89075565 -0.264911 -0.39607072 -0.34711978 1.3873469 1.2549307 1.6403779 -0.0031010646 0.54617584 -0.5799159 0.69577277 0.4760212 -1.074562 0.37830526 1.2610581 -0.053379953 -0.29898465 0.048348036
biznis_4GQhbPvGU5r23YdVm8EmkQ 0.19642247 -0.43171313 0.59340507 -1.0592166 0.57581407 -0.2894787 -0.61214423 0.027848164 0.14432485 0.10308415 1.4388252 -0.64771944 0.38528734 -0.59413683 0.23180637 -0.33665335 -0.13959049 0.18535568 0.97423697 0.80131954 1.0071949 1.1298167 0.22917365 -0.3003493 0.60869503 0.21284324 -0.2964963 0.0056601935 0.32014078 0.00039435198 1.0267742 -0.13720793
biznis_1yx2zLskVTe5WQdYjL2Apw 0.49939606 -0.97053957 0.68171597 0.470953 0.39737812 0.73910487 -0.11399177 0.3815491 -1.4972177 -0.729806 0.23913614 -0.37459227 -0.5331323 -0.48058978 -0.10140794 0.87189156 0.09288915 -0.5818329 0.040313624 0.5871608 1.3465834 0.89705545 0.5073804 -0.37697822 1.2315037 -0.738115 -0.5204621 0.06996787 -0.04584891 0.26160705 -0.46246883 -0.0002703995
atribut_vrednost_Waiter Service_true 0.51271796 -0.07885352 0.3971466 0.19792701 -0.15176386 -0.4027297 0.23330988 -0.121404365 -0.6387456 -0.4445862 1.0071653 -0.6670814 -0.31702736 -0.6071908 0.25513518 0.020069318 -0.37124395 0.8877894 0.12926163 0.2888571 0.8098315 0.62130356 0.60314256 -0.24671274 0.2423373 0.023008784 0.17286205 1.2671658 0.44349587 0.05803244 0.558673 0.6500145
biznis_FV16IeXJp2W6pnghTz2FAw -0.23388816 -0.14959954 -0.12464379 -0.40963933 0.6001901 -0.49969265 -0.11258559 0.2585479 -1.8940583 -0.88424426 0.40054384 -0.17689963 -0.007319647 0.480031 -0.4030784 0.5807701 -0.94560003 0.06610286 0.5231369 0.51697654 1.6051681 0.88201547 0.0071712574 -0.72561306 0.01600476 -0.5543842 -1.0942727 -0.28803805 -0.45511854 0.22761753 -0.0003932611 0.27526623
biznis_atribut_stars_3 -1.8910817 0.89367694 0.4171647 -0.049348895 1.1993356 -0.24829131 0.94355744 -0.8509412 -1.1246912 0.6617037 -1.0272837 2.1135044 0.27716434 -0.76285267 0.38086742 0.98698616 0.9351751 0.36948082 1.7930388 3.2400186 1.7612302 1.2792273 0.2892289 0.1593847 -0.14511763 -0.32927153 -1.5851568 0.8656721 -0.2705327 -1.7608268 -1.4186383 1.2180974
biznis_FURgKkRFtMK5yKbjYZVVwA -0.20871606 -0.034908216 0.7301439 -0.21354865 0.2811855 -0.35508463 -1.2585764 0.9314325 -0.2861196 -0.6612118 0.41268718 0.049096603 1.0670911 -0.65291774 1.0582299 -0.11745917 -1.0218177 1.0645186 1.3632301 0.78672457 0.6348057 0.52459943 0.78629434 -0.5417867 -0.36740983 0.4745302 -0.969658 0.80794376 -0.18415625 -0.31162176 0.32327297 0.92903525
biznis_05tazaFQt1EnQ_Gk_1AFyg 1.1460773 0.015995517 0.40557754 -0.41001812 0.71485436 -0.110031694 -0.3250814 -0.5349792 -0.03474027 0.29598877 0.7091652 -1.1683352 0.4089757 -1.2247527 0.18800205 0.26797304 0.45414847 1.1019158 0.31100342 1.2859818 0.19810617 -0.10183092 1.5318037 -0.28720206 -0.50125706 0.27900484 -1.0191437 -0.1308641 1.2821381 -0.3100776 0.4936927 -0.17748684
biznis_atribut_review_count_4.0 0.37920558 0.22300676 0.44586295 0.020886151 -0.0055898265 -0.089917846 0.14416586 -0.26546657 -0.72113377 -0.245216 0.6596643 -0.4678947 -0.44746408 -0.47077397 -0.012140695 -0.09187447 -0.5393745 0.74332005 0.20043047 0.386677 0.5257598 0.6716782 0.88331157 -0.3598025 0.21587484 -0.20811693 0.043433726 1.3361226 0.25753966 0.11526725 0.26969594 0.7492033
biznis_AumuGuTg3HqvtwbLPi-ZCg 0.6711707 0.09703839 0.7588176 -0.093024984 -0.0638355 -0.15209192 -0.5176997 0.60699916 -0.5731781 0.24094978 1.2593074 -0.6142473 0.59817463 -1.0654683 0.5675704 -0.27112648 -0.9980584 0.8882994 0.2808001 0.17420308 1.0614623 0.08442309 0.75204515 -0.5352167 0.24098982 0.47145778 -0.4114766 -0.4897766 0.8772219 -0.08309703 0.5063938 -0.15954144
biznis_V1nEpIRmEa1768oj_tuxeQ 0.35318983 -0.07305213 0.65273577 0.3430433 0.13432357 1.2114882 -0.31565595 0.30535236 -0.5306515 -0.7286895 0.32377627 -0.14225194 0.37941772 -0.493932 0.71298224 0.2696616 0.29536423 0.367269 0.6202201 0.28704605 0.62497634 1.2348465 1.1514819 -0.53116137 -0.34353575 0.732381 0.15735166 0.67182416 -0.15911226 -0.4467922 -0.4525807 0.80784965
biznis_3fV9sL5LklD9ZSeONKmjkw 1.0241328 0.3789359 0.5452883 1.1592039 0.765849 0.08109452 0.3800799 -0.2421762 -0.8258908 -0.4978473 0.3034292 -1.1959043 -0.12674372 -0.994127 0.43660858 1.2521657 0.34049988 0.73431176 -0.23394303 0.78891635 0.5437295 -0.3437921 1.1781157 -0.6930336 -0.4199562 0.3109748 -1.2837843 -0.49264315 0.6536986 -0.007319253 -0.43272248 -0.0055629537
uporabnik_61HRMKC0sxwrpw_OUltiGg -0.35570657 -1.395019 -0.3403557 1.3946463 -0.549718 -0.3948319 -0.71653277 0.83939844 -0.1811481 0.31958613 -0.12322968 -0.67722976 -0.3289884 -0.7061351 -0.37233272 0.12246174 -0.35917667 0.41689828 -0.3149466 -0.46256408 -0.067172304 1.6978295 0.9783263 0.45460302 0.32094857 -1.0648333 -0.5723579 -1.2589277 -0.38404015 0.24557064 0.47211137 0.3824512
biznis_zNzJkzZxPTeTbRIRfeU9_Q 0.09684914 -1.1186286 0.905624 1.2336242 -0.23454565 0.30365807 -0.41723055 0.40388274 -1.0094775 -0.53749305 -0.07454373 -0.2947157 -0.8558303 -0.8372683 -0.16679657 0.8035593 0.05800801 -0.50008744 -0.044946972 0.1616252 1.2621876 0.92009497 1.2576095 -0.37617555 0.82678115 0.83684546 -0.71718705 -0.7080963 0.597399 1.1478913 0.5668756 0.12567063
biznis_cMvN1j-LK64zqmT4vnl8NA -0.7296653 0.19992332 0.027077602 0.21098901 0.21783139 -0.93645036 -0.41452372 -0.5293525 0.20014456 0.032116782 -0.710733 -1.3093401 -1.0096443 -0.0371284 -0.5870647 0.75220263 -0.07512758 -0.0028296441 0.9238787 0.669658 1.8592304 0.32561308 1.4848572 -0.63600695 -0.046100125 1.0800831 -0.7763707 0.5461362 0.39282405 -0.7442755 0.007816667 0.39909422
biznis_ryvMJK6AlbU35HKrlFT61w 0.5564442 -0.03838357 0.85266125 0.00626325 0.8433459 0.041125298 0.24089415 0.54472214 -0.9180714 -0.8559214 1.1182474 -0.6631741 0.46899357 -0.7770131 -0.100667074 0.9928777 0.24870047 0.12550719 -0.37437195 0.12804979 0.84040886 1.3379993 -0.031702943 -0.818314 -0.32316485 0.15744767 -0.26774344 -0.99984294 -0.17941065 0.53714055 0.7763557 0.17187236
biznis_xNcqwYAUeVOhe3KNC4Xjaw -0.37013474 0.20475148 0.4825626 0.31663263 0.054787215 -0.40571612 -0.61547637 -0.43065387 0.16915835 0.33379123 -0.15973344 -1.6794978 0.10243361 -0.4926851 -0.84580505 0.8540472 0.9217704 0.015536142 0.4925349 0.47279608 0.8252015 0.78114355 1.3136882 -1.1607958 -1.2684954 0.34424084 -1.0956088 0.31600004 0.8748977 -0.14158809 0.44319305 0.29032928
biznis_6imLt53br7SJ3av07jjH7w 0.35562956 0.5509109 -0.41715515 -0.5817193 0.116773814 -0.46473533 -0.936339 0.47114596 0.27914217 0.5480871 0.7490468 -0.9879699 -0.40627012 -0.4345221 0.506351 0.33542052 -0.48335892 0.6457001 0.30273145 1.0740275 0.6006259 0.9205518 0.81980985 -0.06640996 -0.82159436 0.33865243 -0.6582247 0.01507823 0.77107537 -0.22506444 0.65060306 0.46959847
biznis_KcSJUq1kwO8awZRMS6Q49g -0.24621575 -0.28809553 0.032560725 1.1459144 -0.4718371 -0.18051228 -0.9850966 0.53602666 -1.5663831 -0.71441257 -0.52986085 -0.3297486 -1.068034 -0.16753645 -1.1027017 0.6702935 0.37608007 0.35380033 0.6149088 1.365455 0.6356578 -0.17568325 2.0792184 -0.86603993 0.020779122 0.21166483 -0.87868553 0.12904328 1.2250069 -0.8840335 -0.45231542 0.60380757
biznis_sL4n5lhxqoZ5l0d8gwIPyA -0.16636397 -0.36093065 0.6444203 0.68588823 0.0886787 -0.021194305 -0.97744507 1.0185981 -0.8975297 -0.70151955 0.30580425 0.118229985 0.18964452 -0.52837473 1.3391647 0.21365349 -1.1946527 0.5004285 0.6945234 0.36848208 0.7488249 0.51952547 1.0932244 -0.5640458 0.0861891 0.89528525 -0.34426704 0.283048 -0.46019512 0.3123822 0.31551954 0.71002257
biznis_HbUQ_3dlm3uCacmhTEMnuA 1.3230542 -0.5796105 0.10005745 -1.4135603 0.8901089 0.27455157 0.43800986 -0.17668062 -0.1025705 -1.2444142 0.2742779 -0.6132085 0.08512582 -0.3207475 -0.45461166 0.122477144 0.17377463 -0.30122322 0.16276896 1.1476736 1.2038627 0.7697292 0.8165218 -0.06329011 0.7343572 0.20393644 -1.1884716 0.94406646 -0.18487953 -0.11438452 -0.13801716 0.33152276
biznis_rBPQuQgTcMtUq5-RYhY2uQ 1.0659541 -0.64118344 0.20258118 0.011978444 0.28681758 0.43606678 0.41691637 0.23600495 -0.9873115 -0.6846109 0.31620264 0.11868133 -0.40045875 -1.325429 -0.06302841 0.33715782 -0.044623468 -0.5439714 -0.18054768 0.5384831 1.2339793 0.57391995 0.97280645 0.13201506 1.2816327 0.39915842 -0.7573797 0.066464715 1.0970659 0.25577158 -0.582287 0.6589897
biznis_gGeVLZ9j_wAYKbaqgnKSJA 1.3101171 -0.89101565 -0.010455353 -1.3025104 0.0020050877 0.5365669 -0.5347835 0.93871576 0.014947767 -0.046084423 0.27172917 -1.4626187 -0.5589617 -0.54953855 -0.50234985 -0.023657084 -0.29205537 0.071107864 0.38684377 1.153522 1.0083768 0.37481776 0.84912854 -0.17902812 0.43014959 -0.42436713 -0.6526156 0.67566055 0.65822834 -0.88698316 0.5873483 0.15371436
biznis_YacTpiq0ZptFcXD7I-kdGA 0.5665809 -0.42014298 0.13262607 -1.1172278 0.45088488 0.034182034 0.017267141 -0.49660197 0.14564648 -0.4022922 0.5130002 -1.2583883 -0.37257347 -0.19196261 -1.072429 0.7876937 -0.3113072 -0.99962217 0.15309854 0.34305605 1.7093043 1.6837407 0.4562114 -0.8942334 0.97433925 -0.072066955 -0.9383149 0.3574224 0.3658425 0.38438743 -0.05340582 0.26014295
biznis_Q_Rwcv9APBLggk2KAsBEvg 1.5100023 -0.095820814 0.30551186 0.2895228 0.69356054 0.2562998 0.0046540424 1.0834112 -1.0580279 -0.7200616 1.1123394 -0.5178153 0.45817122 -1.0735284 0.05752108 -0.17918263 0.08134922 0.40212917 -0.1473945 1.331655 0.4479969 -0.25735286 0.6288726 -0.0481506 0.6718503 0.01599917 -1.0041575 0.027244352 0.4240409 0.28675523 0.2391961 -0.22965449
biznis_vEeiIvhzz29rO-6EPFqkjQ 1.2540852 -1.455804 0.09862086 -0.3714831 0.3766398 0.4498815 0.30207652 0.44236043 -0.2403833 -0.38028648 0.28276232 -1.0871352 -0.6772065 -1.401902 -0.4240335 0.56251574 0.30064362 -0.8463937 0.090041205 1.2500535 0.9526842 0.42512682 0.7942972 -0.11906188 1.5948924 0.18278688 -0.5868775 -0.1652538 1.2270017 0.34448114 0.67367613 0.31410572
recentija_atr_useful_4 0.64615136 -1.8155642 -0.19458228 -0.08809788 1.36523 0.49353123 0.42806464 0.5600277 0.8123332 0.8532781 0.32073185 -0.07887413 -1.4233512 0.5778695 0.1801217 -0.40474886 -0.50685847 1.4834431 1.5056237 0.56908834 -0.48489535 1.8195661 1.0888875 -0.29641902 1.002356 0.32476777 -0.695826 -1.0200126 0.10865677 1.1115631 -0.61622876 0.5773885
biznis_3OB5gQqibKGTzx9R1w7wKQ -0.69047683 0.65429324 0.77481306 0.35542554 -0.12035254 -0.22546117 -0.91506666 -0.15982318 -0.8282301 0.55541706 -0.1891651 -0.6485143 -0.1522723 -0.08985559 0.34637684 0.51913375 -0.17555511 0.65450877 1.0229663 0.2862911 1.0122114 0.8761216 1.001194 -1.036427 -0.26233524 0.8386693 -0.20113328 0.5084583 -0.44580114 -0.30927962 -0.104938865 -0.008417392
biznis_7q1FpSXbE6XtLNg518pxDA -0.1579147 0.21628238 0.963047 0.15930438 1.1065954 -0.5287327 -0.5953051 -0.68275356 -0.41481715 0.08857932 0.57961226 -0.36652607 0.65086544 -1.1250392 1.170225 0.80385107 0.31129363 1.1414092 0.4910348 0.36537513 0.52845806 0.30601677 1.0074389 -0.061666984 -0.8666168 0.2692359 -1.0772052 -0.34722674 0.6005072 -0.41397503 0.13375455 0.26366603
biznis_V6BYjHM9SnXscfkln3hCdA 0.87366194 -1.4551765 0.74225247 -0.3264533 0.15256622 0.9719511 0.18000641 0.511067 -0.86932206 -0.5440875 0.33734357 0.08445026 0.17208123 -0.89278007 0.32556424 0.6141006 -0.35181966 -0.21707411 0.322914 0.3663805 1.1907061 0.64913005 0.87749106 -0.65824354 1.345326 0.1400717 -0.70094126 0.29576498 0.8679851 0.78621113 -0.12272177 0.7747332
biznis_9c_9SX-7hB7HW8KatQbD8g 0.3365078 -0.81485385 0.061048143 -0.6287218 -0.11978445 -0.9108977 -0.42975116 0.4044696 -0.79787797 0.12641078 -0.23626424 -0.44636363 -0.670285 -0.6356082 -0.5453655 -0.018533109 0.09591974 0.52779305 0.9750957 1.1730877 0.89214146 -0.59200203 0.9887668 -0.25407878 0.24581887 0.3632128 -1.5646034 -0.16006483 1.3083935 -0.535134 0.4851966 -0.17510605
biznis_Zx8_4zKdDBSO3qGrkukBIA -0.1888304 0.8986324 0.34873623 -0.031750742 0.89494234 0.2370772 -0.135557 -0.27496558 -1.1338683 -0.4286116 0.7178163 0.06517522 0.11517549 0.24047075 0.30541706 1.1765063 -0.33442903 1.0471367 0.5222049 0.11608733 0.71483815 1.2172307 0.5322003 -0.70359373 -0.69682235 0.39338887 -0.8446066 -0.23636883 0.17447974 -0.41473532 -0.069320396 0.93991
biznis_YrIfgzLj0DPStJ1ESAS_Qg 1.0619413 -0.81554306 0.9541157 0.13012208 -0.053880986 0.66858083 -0.06227403 0.012171539 -1.1740115 -0.84246665 0.7946405 -0.20653413 0.082713656 -1.2369115 0.8447791 0.10219962 -0.22403249 -0.18952434 -0.17547536 -0.12607157 1.0380923 0.97588974 0.7028536 0.0484546 -0.03420385 0.97603637 -0.9736483 -0.72023076 0.26674277 0.81116503 -0.10860226 -0.32534668
biznis_DxUn-ukNL27GOuwjnFGFKA -0.31312677 0.853222 0.37217024 1.0879138 0.28829458 -0.31123865 -0.43316442 0.11324754 -1.1235447 -0.90762794 0.99693555 -1.4777112 -0.28499722 -0.65123713 -0.7104206 0.951379 -0.043787546 -0.57755613 -0.3097465 0.44163388 1.5341702 1.222715 -0.017514227 -0.51846826 0.24464148 0.39081115 -0.7796845 -0.43628645 -0.22490567 0.14386651 0.14879338 -0.27768782
biznis_vSf0pqvaLp5sVSjJPeOqqQ 0.45860162 -0.45207205 0.57567203 1.2170871 0.72422206 0.0890794 -0.302429 0.47845024 -0.9361162 -0.7891169 -0.06672045 -1.4000173 0.27348527 -0.37192333 0.59331363 0.6489533 0.15611535 0.6030508 0.28604215 0.93919224 0.47704715 -0.5170628 1.0001255 -0.8857652 -0.3637788 -0.013391373 -0.8576797 0.2846755 -0.00069697405 -0.1612239 -0.049915306 0.16462609
biznis_eLPld7Q17XxlclFGzZQX5g 0.54716253 0.33587697 0.80921936 0.3794359 -0.09340379 0.26750445 -0.5444235 0.6863215 -0.721408 -1.106647 1.4566237 0.08268918 0.31927383 -0.84770894 0.037762783 -0.01819321 0.34074536 0.50170153 0.12091168 0.46138963 0.50462687 0.8140607 0.43643898 -0.8625389 -0.5300592 0.7187935 -1.1872739 -0.3505173 0.22077742 -0.12856577 -0.07540833 -0.34329847
biznis_8zL3V6rmFKBess3bxPLAoQ 0.3906124 0.27564722 0.46539032 0.6732803 0.474808 0.46909615 0.7859692 -0.33747077 -1.3263748 -0.24116664 -0.384469 -0.82574207 -0.4027182 -0.6199179 -0.3050027 1.3201249 -0.045625307 -0.0006057132 0.22519791 0.583191 1.1300322 0.39638418 1.2692429 -0.7441796 0.6380071 0.37012485 -0.3273441 0.12549184 1.1864154 -0.13574202 -0.33802065 0.972888
biznis_yD1dRYi7USzhYVKiqZ7JVg 0.59089804 -0.37458614 0.821737 -0.23958889 0.8343832 0.52623266 0.42875373 -0.5842945 -1.0508708 -0.87356836 0.73540014 -0.35320687 0.7707215 -0.5531887 0.9845067 0.98157096 -0.6158353 0.30902055 0.115621015 -0.3742287 1.362232 0.83145124 0.4339047 -0.50043476 -0.7282617 0.26256967 -1.7317673 -0.3252013 0.12098028 0.73360056 -0.40925497 0.47493243
biznis_RhbOa-Ft3sZB4B_1j5LfyA -0.22184457 -1.2864 0.5567317 -0.26082844 -0.21852472 0.15287392 -0.47384006 -0.44414726 -1.0945518 -0.043421324 -0.15825184 0.044898484 -0.6218811 -0.5581308 -0.26010692 0.30886748 0.034235176 -0.596025 0.80975497 0.05196959 1.6407704 1.1318312 1.0190891 -0.52098 1.049954 0.23049301 -0.35886756 0.1062392 0.07271428 0.27068293 -0.27351913 -0.10412093
biznis_-5RN56jH78MV2oquLV_G8g 0.44981337 -0.39707696 0.3494501 -1.1945481 0.82072765 -0.3343478 0.27288878 -0.30705982 -0.17531429 -0.5837937 -0.13510288 -1.3681031 0.34878373 -0.10231263 -0.6291867 0.85333717 0.6816748 -0.70126545 0.57335514 1.0889031 1.1558706 0.9775491 0.37218273 -0.4873559 0.6428665 -0.48176363 -1.148677 1.0152646 0.0758816 -0.090005696 0.12964088 0.4393195
biznis_c12WDNrP2wyQgbnEYDdxCw 0.09792799 0.87753916 -0.026855217 0.41075 0.42855597 -0.4622983 0.7381918 0.014993158 -1.3486476 -0.34189028 0.5308494 -1.5239205 -0.56121606 -0.3588655 -1.3619149 0.6363253 0.38638088 -0.6712114 0.38345888 1.5808845 1.9141943 0.4258694 0.12838317 -0.48934713 0.52379537 0.03306481 -1.0711031 0.16538288 0.6874539 0.14066501 0.02396154 -0.14471158
biznis_Z0kyK8wCBNGkkUT9UrMWcg 0.42818496 -0.74985564 0.34595975 -0.5994288 0.37972307 0.39595887 -0.7887775 0.40178356 -0.10774471 -1.198692 0.6457467 -0.86252326 0.30232117 0.09087712 -0.1578476 0.26729912 -0.54355246 -0.23107842 0.5705097 0.1183023 1.2360615 1.5451176 0.30375212 -0.3573779 0.11866475 -0.28957674 -0.8915289 0.763842 -1.2296253 -0.15773596 0.72341835 0.23279689
biznis_9Bnc9YP0n5cR57xkP6fQmQ 0.9238435 0.14115497 0.4739022 -0.33047885 0.26806945 0.48132172 0.07213024 0.92063206 -0.30308625 -1.0752946 0.8445749 -0.9160075 0.34746766 -0.088346966 -0.640625 0.314303 0.67460793 0.5613542 0.6007982 1.0776677 0.52169055 0.42138913 0.48637676 -1.313412 -0.33192098 0.15946595 -0.8066007 0.49410418 0.36718088 -0.88661456 0.24732378 0.43978775
biznis_rZbHg4ACfN3iShdsT47WKQ -0.14050192 0.5761854 0.5062409 1.2021538 0.65723586 0.23263238 -0.17322311 -0.19295189 -1.0012457 -0.9931795 1.0339036 -0.1753536 0.5693782 -0.6540896 0.5280959 0.84190345 -0.2500694 0.24280033 0.710616 0.07499881 1.2659622 1.3829008 0.7488173 -0.13323557 -0.5115912 0.6825182 -0.5289768 -0.41328186 -0.38694376 0.30744207 -0.016760198 0.617818
biznis_jh7S78tc9oXCDjAjP_OrLw -0.8200097 -0.008164822 0.3501567 0.8302331 0.41945314 -0.3985251 -0.40000123 -0.14089353 -0.7889537 -0.8086765 0.81169057 -1.2316827 0.3740046 0.08966017 -0.34353516 0.5431103 -0.4045115 0.20881692 1.4395565 0.06915152 2.0434144 0.608 0.20837387 -0.71025693 -0.22975521 0.67078686 -0.7838746 0.10547246 -0.47665414 -0.15309218 0.18528774 0.14842023
biznis_OE5nAmaSVaopeRS1Cs9Kuw 0.22792098 0.066516384 0.5145559 -0.5264643 0.96408796 -0.2755166 -0.15473454 -0.46701792 0.06280101 -0.66722816 0.76282 -1.2064986 -0.25392774 -0.34533343 -0.4294499 0.44329855 0.10576807 -0.44878554 0.00058777415 0.4316136 1.4170111 1.8784775 0.26944685 -0.07741133 -0.030239258 0.74522275 -0.7846754 -0.06836023 -0.84822303 0.7303058 1.0639129 -0.2737366
biznis_DjOxXobyGDwWt89q4z1twg -0.24479882 0.4891476 0.31081632 0.24228519 -0.6689884 -0.4305915 -1.2118531 0.7735339 -0.54373443 -0.52751225 0.8356288 -0.3399747 -1.08632 -0.069101855 -0.5800006 0.066361204 -0.6111618 -0.1337052 0.33496296 0.47238958 1.5789944 1.2525079 0.55088323 -1.1057589 0.47470412 0.8670409 -0.58281505 -0.05489277 -0.06707351 -0.114574656 -0.3702188 -0.3499534
biznis_Ensu96ecI0OReupNS2x7ig 0.57065463 -0.46934435 0.12747586 -1.2051278 0.6949659 -0.055440113 -0.22437766 0.7459825 -0.20354713 -0.6306455 0.9859649 -1.0589501 0.21875122 -0.6099645 -0.9372453 -0.084554136 0.47532228 -0.12069208 0.83580875 1.5249016 1.048445 0.44367775 -0.27747852 -0.67264885 0.6050607 -0.48782775 -1.0882088 0.5263711 0.7279502 -0.9274848 0.13909858 0.26213634
biznis_SLyacGZuMUKqrQJEooSkjw 0.7788449 0.7943905 0.5585 0.38451758 0.2447479 0.33814836 0.44014195 0.62964964 -1.4636148 -0.46103296 0.519261 -0.81879836 -0.03152551 -0.6879717 -0.8453268 -0.14893647 0.7515314 0.2518918 0.44987524 1.587168 0.8485815 -0.11038011 0.8606439 -0.6740616 0.508828 0.108485565 -0.34057948 0.63998955 0.601927 -0.7234444 -0.123275734 0.0061601344
biznis_NK-8zniVfA21IQoQCynrDg 0.4938382 -1.3200749 0.46460745 -0.44554493 0.5131787 0.20981427 -0.0043249694 0.28180057 -1.4219007 -0.63367635 -0.32944182 -0.75239927 0.15965559 -0.6369827 -0.18923382 0.5964422 0.5640508 0.12474814 1.1216679 1.1540571 0.8022821 -0.39326662 0.4527042 -0.2951525 0.52878773 -0.65037847 -1.4964931 0.54034907 1.040341 -0.91234356 -0.22965032 0.44426584
biznis_N50HceZf1595UtU867u4uQ 1.1870334 -0.11846138 0.09101488 -0.16842178 0.8646274 0.2586178 -0.212163 0.39325407 -0.14127032 -0.8916489 1.034671 -1.1765854 0.34849352 -0.52492493 -0.7823043 0.22684394 0.8062321 0.7057187 0.79578525 1.0753582 0.5856414 0.15329996 0.6869771 -0.41855028 -0.3572646 -0.24087316 -1.0846068 0.19553405 -0.04489278 -1.0657161 0.2977688 0.074896775
biznis_gkWEjZIVcrUerEzed6IKpg -0.30111605 0.2343314 0.37765285 1.0688667 0.66219413 0.12626202 -0.096722096 0.12964098 -1.1274345 -1.391168 0.7808991 -0.51185066 0.8078847 -0.01529036 -0.312049 1.1415519 -0.22929998 0.6959008 0.9695936 0.040188134 1.2667304 0.3651085 0.63226837 -1.0011289 -0.60823697 0.1771849 -1.005868 -0.1197136 0.07743199 -0.6945747 -0.21190086 0.83743364
biznis_ieYiud3trM-9e7E8YUhK0g -0.5548144 -1.3091052 1.1398892 0.3330574 -0.200958 0.08725645 -0.9210704 0.3975677 -1.0553898 -0.3291827 0.25168848 0.3195027 -0.5008782 -0.47302175 0.5306526 1.019108 0.007039163 0.27105182 0.31068185 -0.0688948 0.6638103 0.8479386 0.8437057 -1.0292438 0.35804474 0.6569727 -0.7844566 -0.85532147 0.7303361 0.5381021 0.6246121 0.37304732
biznis_ZP6qFq7LUh6Tr7WHPoOW6g -0.69823784 -0.9308133 0.46715134 0.24919462 -0.62260306 0.05280157 -0.63026685 0.6850363 -0.38750038 -0.2532618 -0.6926149 -0.16606164 -1.2000314 -0.2893178 -0.46677497 0.39646855 -0.36781925 -0.92227644 0.42079413 0.24407615 1.9299319 1.2672645 1.1568178 -0.48689047 0.5749972 0.8997122 -0.5176972 0.51938844 0.423654 0.5770742 0.24959622 0.50824374
biznis_zTCCbg7mGslxACL5KlAPIQ 0.77643913 -0.0051734378 0.37734976 0.6660786 0.6264689 0.12594473 0.8409873 -0.041416917 -1.4077204 -1.0739167 0.057099987 -0.12743276 -0.4439317 -1.3312808 -0.62623894 0.8813935 1.1472473 -0.32789668 -0.13039902 1.1862295 0.82572716 0.7761598 1.0955063 -0.1688346 0.37847713 0.42450354 -0.4762144 -0.58482856 0.87253535 0.16420995 -0.2313253 0.6969631
biznis_j2KCZNlWnu-L4j0yJ3zAHA 0.9194459 -0.18258162 0.67091125 0.15923089 0.5915731 -0.24363995 0.5020893 0.0014144094 -0.8566111 -0.21751815 0.13002744 -0.052846465 -0.6306937 -1.4752921 -0.5744955 0.4961623 0.8965769 0.0427414 0.016063727 0.5502414 1.0876182 -0.088162154 1.6055727 0.2298057 0.8689691 0.5301723 -0.73432535 -0.38952833 0.632554 -0.30815065 0.49778035 0.16364408
biznis_jq_YnMQjcArdBWuwRospFg -0.7294664 -0.14826275 1.2120658 -0.67921174 0.3120538 -0.6679982 -0.8531739 0.23873663 -0.21041809 -0.2246241 -0.12270959 -0.6987642 0.4083555 -0.0066148588 0.6121867 0.8570163 -1.2045436 0.45023322 0.40059176 -0.3892251 1.2898179 1.349009 0.22368334 -0.75622064 -0.04802114 0.9268501 -0.69426596 0.1298443 -0.21884228 0.13650018 1.2923216 0.5391567
biznis_Z6aaze-cgaYKKXlpuH9LqA -0.7823964 -0.9757012 0.1655554 -0.022097329 -0.07541502 -0.41316026 -0.9755782 0.7052367 -1.4637127 -0.25107142 -0.15596804 -0.21476611 -0.4236979 0.5130721 -0.6551909 -0.054487027 -0.23433216 -0.009169813 1.3785474 0.5641004 1.291712 0.75049824 0.5975563 -0.20992361 -0.28863183 -0.03549971 -0.78242797 0.14006189 0.052550044 -0.027782755 1.0472456 0.26413786
biznis_Lp-A-JNRUUH72uou5-pMtQ -0.25176904 0.4033096 0.75973743 1.4187785 0.20685214 -0.16543321 -0.6543084 -0.094316356 -0.6664191 -0.05252629 0.18484944 -0.7334871 0.17083353 -0.83879924 0.32055604 0.6528642 -0.58361274 0.5368841 0.42336145 -0.2690935 1.1009368 0.84494865 1.3839834 -0.36013898 -0.53830993 1.1344576 -0.32451406 -0.54177606 0.11512254 0.32974032 0.59317905 0.49417585
biznis_z67yrh03lRSANrpPsRcTfw -0.21672961 0.101756655 0.7952138 0.32043156 0.41151935 -0.13021955 -0.38550282 0.22034562 -0.9441243 -0.88051635 1.0239072 0.68969774 0.98438376 -0.7819357 0.106205426 0.19595076 0.10793652 0.740546 0.87976426 0.19786371 0.7426368 0.5311513 0.809857 -0.71236 -0.3245114 0.550322 -1.0077718 -0.3474266 1.1477726 -0.4361013 -0.19416152 0.7913463
biznis_5kRug3bEienrpovtPRVVwg 0.13045983 -0.80101866 0.6637077 -0.649904 0.16559945 0.4410757 -0.821226 1.203538 -0.9302301 -0.8517579 0.3307844 -0.036681768 0.6244892 0.018792046 0.35526276 0.18682833 -0.048232123 0.7441031 1.5629344 0.65197563 0.59240705 0.6424885 0.22780703 -0.93987817 -0.9380943 -0.26400182 -1.1518302 0.59834373 0.022195645 -0.93923414 0.33237407 1.037245
biznis_LLDGTT7FExklkQvHebEjRg 1.3939174 -0.19588254 0.40883246 -0.4480292 0.46979195 0.11695561 -0.07444664 0.088332966 0.20937751 -0.79586154 0.80871373 -0.91791356 -0.34985384 -1.0242898 -0.50449723 -0.1422277 -0.35630435 -0.37256324 -0.2642774 0.865429 1.6510484 0.87245035 1.1109741 -0.27479577 1.3905417 0.55106026 -0.3961805 0.2823264 -0.25480965 0.21499169 -0.13027947 -0.45219418
biznis_-2n-OHbbwIv3SY8RP9bgTQ 1.069255 0.04758568 0.48240578 0.9758695 0.3849592 0.8110207 0.21211113 0.9053354 -1.4285952 -0.9071979 1.1963629 -0.4982642 0.08931628 -0.7918425 -0.29072776 0.019098783 0.099855654 0.18462968 0.20680863 0.93454856 1.0242244 0.47708598 0.68078244 -0.350303 0.4392071 0.22800283 -0.09977131 -0.3628558 0.46339282 0.1597977 0.066445254 0.3161963
biznis_Xsp9Dy4PQgAssCVk2-f73w -0.6808784 -0.32304707 0.3578057 -0.5880366 0.74447906 -0.80114704 -0.55741674 -0.21295314 -1.3795514 -0.24589537 0.005750742 -0.039830085 -0.20383902 0.08288492 -0.097307794 0.2608186 -0.13030393 0.2221763 0.9671325 0.4267279 1.4595766 0.66100883 0.41362873 -0.23675017 0.1636204 -0.47999755 -0.92264724 0.24243128 -0.7477484 -0.38665253 0.20916107 -0.17123505
biznis_wNsmt1hF1uv3YvbwXZMAoQ -0.33386415 -0.46437716 0.78911227 0.40456903 -0.11983909 0.18457408 -1.1338623 0.60905993 -0.9629823 -0.628771 -0.2130859 0.40978694 0.124221966 -0.05517718 0.7523195 0.43400845 -0.29954523 1.0662084 1.606881 0.5863979 0.32616508 0.5084204 1.6380526 -0.96427155 -0.6455686 0.50284123 -0.8201172 0.48552498 -0.03458456 -0.4588897 0.33276036 1.1938524
biznis_vxxMqBaAHuWdx4impsLSSA 0.3518212 0.77426785 0.14037643 1.7765882 -0.051291235 0.037563663 0.04970607 0.13769461 -1.3731949 -0.43321723 0.76601005 -0.63018715 -0.8084109 -0.8507569 -0.7924595 0.37436768 0.066290356 0.3058549 0.522676 1.0635978 1.0532131 0.3904515 1.4426341 -0.87058973 -0.26817253 1.0490443 -0.44164595 -0.9387149 0.7906575 0.3659184 -0.03575917 0.076599814
biznis_KPoTixdjoJxSqRSEApSAGg 0.0043044505 1.1412042 0.69373876 0.9624473 0.69613963 -0.3358474 -0.07014695 0.10951395 -0.9735305 -0.46476948 1.0355821 -0.54932374 0.40651703 -0.67412937 0.19011024 0.9482788 -0.92938364 0.62948126 0.27584997 -0.07817409 1.4565605 0.78106314 0.56221753 -0.56062895 -0.0795585 0.6199842 -0.66446054 -0.6111266 -0.32767582 0.16069317 0.50276613 0.2958379
biznis_npfVfumxVAkQNYpY1fSvew 0.78320885 -0.017507443 0.029496506 0.766667 -0.37639007 0.2372797 -0.7666261 1.208971 -1.1943952 -0.40362638 0.37492314 -0.34705627 -0.9716005 -0.45084402 -0.7752754 0.18495339 0.5525324 0.6937175 0.5722871 1.5811731 0.22711843 -0.23469074 1.4054776 -0.7511614 -0.10783587 0.20568389 -0.9603666 -0.090070896 1.0493882 -0.7105711 -0.045306403 0.08701817
biznis_zp713qNhx8d9KCJJnrw1xA 0.6191667 0.77887285 0.5909918 0.28676498 0.07596975 0.07202795 -0.5714978 1.0464711 -1.1085111 -0.114304036 1.0649235 0.097914375 0.10772717 -0.62839174 0.5792407 0.103813015 -0.9146503 0.45944765 0.3134938 0.593968 0.5471063 0.9987424 0.9679568 -0.6431591 -0.005068352 0.39743754 -0.75855285 0.1432922 -0.5373517 1.0050085 0.74632823 0.31493527
